{"config":{"numFilters":4,"filterSize":3,"numConvLayers":1,"inputSize":28},"params":{"conv":{"filters":[[[[-0.43790355871492864,0.02599903895071626,0.07219470287276299],[-0.08464689946386299,0.5903948052095744,0.6707553958503081],[-0.40157727374329266,0.4144526631883425,-0.377774951580783]]],[[[0.10511278553788765,-0.44344626357784983,-0.3616190569632294],[0.006869950455759936,0.11890590599119157,-0.24082220021082865],[-0.15551759020549252,-0.06774211885398097,-0.0477670122701406]]],[[[0.0242218899436266,0.1622238671222914,0.6092742539426086],[0.4270928503080703,-0.4417478845896083,0.2522406037033367],[-0.5100306905838538,-0.0872937382347838,-0.3178857793653504]]],[[[-0.1092903246862106,0.7981829748610089,0.4717486381401867],[0.09570125741578485,0.7198283249366338,0.614898051583807],[0.3474868406253767,0.8790572013951045,0.44080613938693636]]]],"biases":[0.015369615951247638,0.02600903580048699,0.018415063273520535,-0.09086909285898653]},"dense1":{"weights":[[0.030484134199300617,-0.007123648385694724,0.01876779820064516,0.00363916432307068,-0.025821007766633795,0.02798123876624497,-0.02505027364793763,0.01612835908822711,-0.0381753788575327,0.02600492786334246,0.026437348244708878,-0.05305240479485788,-0.002828191966920367,-0.004895762623653463,-0.02349243277421996,0.01759335996832071,0.05367967051167713,0.008395610970475833,0.00608211187573262,-0.019278196010691858,0.02331445612881483,0.030963315173983284,0.019442749271904248,0.009204100372212051,0.011548475514998383,-0.04362818494658991,0.05246951929525901,-0.05035545434968976,0.0034403198090022127,0.015280169936848272,0.02543059270004981,0.010361573647547419,0.05192808024634609,0.019584245798539048,-0.014525650650650942,-0.046417468152836275,0.034177461321857436,0.022208651168392015,-0.007891728136917681,-0.029970483417583457,-0.03753171219546035,-0.032762643144035306,-0.034833539050811525,0.043451765634854034,0.022399225589650188,0.013613872382177471,-0.015175359800786286,-0.030546017746109544,-0.01681422128143216,-0.041143367639583074,-0.03456097638011304,-0.00827622922547829,0.025523298055429685,-0.04795636040715499,0.04507963270579221,-0.026823029217282898,0.01894646293147367,-0.0291019962150351,-0.05119026724257289,-0.036141184798837864,0.029552869567939778,-0.0016816795853039832,-0.027768413915622243,-0.02061029072236793,0.01880173163642717,0.00470849964926019,0.028931208819452978,-0.049770317415473206,-0.03453426100087462,-0.02399701881679348,0.028598946754157327,0.00165795853244151,-0.04370265569816169,-0.045910095376416785,-0.04640683813534093,-0.05279660620427026,0.008542064994222434,-0.043911816184174,-0.028196977971881653,-0.03321979937055034,-0.035596216412806775,-0.0060483573572661774,0.015204041831021125,0.01963013410849885,-0.029815357880673993,0.04790250678586842,-0.024276705139040726,0.046933583408874845,0.033693184848106565,0.01609144946610732,-0.005719919318356376,-0.008216875880570917,0.021936257961689166,0.009929117576615163,0.048794029715450965,0.042359232492130326,0.007198085634079148,-0.050844016463441784,-0.011517536838904382,0.016415771531794424,-0.003458292721498014,0.009326767142729148,-0.05237745481267508,0.03925048117122935,-0.05364291902464278,-0.0450388150767757,-0.004942648709023455,0.006794131993713785,-0.022061824430142606,0.0037702531666621063,-0.0033128672559464495,-0.00487392320992161,0.04231287073532128,-0.017075219659773322,0.03322098471603195,-0.019984657695719443,-0.02155219384113679,-0.007255467517702965,-0.03768095815723052,0.008945358041236574,0.03039288722076929,0.035151169412396835,-0.0020545293847386977,0.029198660420559266,-0.030578898878980933,-0.005093086432741456,-0.007233739048164389,0.00609281386210809,-0.051966788018022736,0.02011736118287203,0.020112784796778204,0.040787539602350174,0.006584632651866432,0.032801240177603594,0.03605451448060344,-0.02703984365768311,0.04100733553818624,-0.002924179857464282,0.041998831725697384,-0.019580915255164463,-0.015877509017439832,0.05097534723325488,0.008857336617088986,-0.04937911258593663,0.008412933740966464,0.0434085302555092,0.002144847479606797,-0.0412541152677979,0.008957230067768768,-0.042163084936605255,0.04731155874708908,0.028198951165830242,0.0015179047058589364,-0.01927896586420161,0.007862662659497918,-0.003336511266161708,-0.04821241278192879,0.034312147455848124,0.05667422458114481,0.007364681873069858,0.041652517256642554,0.02293156315599458,0.04877074445170243,0.0011895308448439874,-0.0028191999290926887,0.004351997492799045,0.011660124725078956,0.03332413914136475,0.03946123009061313,0.019467691747502496,-0.022901010739824854,0.023996694405099567,-0.020796455697049306,-0.045854619009211436,-0.043835639087315144,0.002605279710474978,0.04295205745609856,0.03853938849810374,0.007852277067055234,-0.05392203050738241,0.035957154223140914,-0.014312632311716584,-0.03944213873413404,0.049822481974291205,-0.01700568965395025,0.02838249108353681,-0.011770594420885806,0.024060483199245194,0.023856121121243166,0.020521739468145034,-0.0031789301707527266,0.00763627669582221,-0.013808813949467326,-0.021948871812753182,0.010974823978933464,-0.0393553626703041,-0.00954389786309672,-0.024105092818442773,0.03746052383884785,-0.052757892488270224,-0.024158593263965748,-0.024320925820346537,-0.006210440392328154,0.02087175675392104,-0.001300538925682858,0.034679576797914065,0.015700968120427445,-0.0421750584399151,-0.05080270292189393,-0.04969852608434676,-0.026022126746286473,0.026261752891563527,-0.0016915031143762019,-0.009690816213512449,0.036876662810030235,0.008188013634239818,-0.002086546658343775,0.022764611891815667,0.0546968939807754,0.03283318173598797,-0.05060423757825471,0.023533869843781266,0.025962542009172987,0.01493916789231332,0.03175048901189843,-0.01420892729779349,-0.01414917768731763,-0.053452931535186834,0.008332324294615178,-0.046197626743626236,-0.006308888572303018,0.04009172276321113,0.037352508251755956,-0.0337209738130835,0.004601462673165595,-0.04083574851946077,0.05100288847084135,0.0001767990630493975,0.05035587355064516,0.03502977356345756,0.04722262328819406,0.029392339688000632,0.013191994534248335,0.03667219089265143,-0.0380991286511631,-0.00029965882010191515,0.04233584976296105,0.049706141967157724,-0.029904471940003355,-0.028883294096867646,0.013069068032895901,0.018383103430738373,-0.015620852958425406,-0.0019897690100850636,-0.040007847482290124,-0.04864766467913045,-0.02002070538352285,0.041553667486962646,-0.038004123992908506,0.010882081227944993,-0.021279361081405976,-0.01806519011648877,-0.015681509411658894,-0.04111047980373441,-0.025683432389696552,0.030068976602651086,-0.0030958476038196146,0.04841860097776049,-0.007087805000026197,0.03990110544820871,0.039665518946288066,0.04215977757086648,0.03707269761999003,-0.006902513151895388,0.028412393106093458,-0.006978608777402315,0.024835224122933305,0.03512062578162595,0.04857557633728112,-0.029815901180227252,-0.017181421390501214,-0.0512847456626363,-0.00802025935628595,-0.03025455150011731,-0.03136069033734474,-0.037231765954396666,0.029858554199343242,0.012519927822064602,-0.0066461928267661525,0.048347180400075594,-0.04206729705381245,-0.047485192995176395,0.022783508690019962,-0.007870614887245659,-0.013297548865752195,-0.010148401053690867,-0.027065419808021886,0.02546569910845607,0.02447583905729089,-0.03621777879790864,0.021063330839765266,0.02380890182190467,-0.040619483580701124,-0.022176453331491288,0.003976988295665175,0.007643835528691815,0.011531481203722077,0.04422431684698905,0.05051678101887649,0.010777968332930276,-0.017402010692718368,0.04654982533109062,-0.012519303160014143,0.014827700520794932,0.0002694948722005604,-0.009531932829837192,-0.03780948033827596,-0.03105082297409984,-0.02172788768748261,-0.05206618542806173,0.03444053394564146,-0.0006287329310430257,-0.03814981192685063,0.05133088769971994,0.023060725596847857,-0.01982593049091535,0.020572745504922458,0.021140871511080284,-0.03827721861409027,-0.048445526142407117,0.002909386809743785,0.024622968206645102,0.0065183454046259335,0.03430655908829086,0.03062266707963809,0.039333327666471934,0.026395079002878533,-0.052743138626702914,-0.0015031258850707317,-0.013158213722132878,-0.05356307166447864,0.022432048138179294,-0.04981439467920642,-0.04718975439931049,-0.025192536340335973,0.045964426783980994,-0.002756313244619369,-0.04857786385152513,-0.0421276820909618,0.002969385064624058,0.002947833380182712,0.011260180305309309,0.053323127313835095,0.03314383185291843,-0.010404210392977611,-0.03632451803821523,-0.024222299775927082,-0.038100199703024425,-0.021934588357993588,0.041789690264358116,-0.040374558391394845,-0.037872565330243704,-0.05201405342803485,0.05357898398057081,0.03933104329017538,0.011483026820043115,0.04369106942669501,0.0055809008680288655,0.04920469441353829,-0.04725043235371669,-0.002028323927857885,0.004565959092995218,0.054277480409686066,-0.022327464472416642,0.03971890431525905,-0.032572916004808605,-0.01996283202089593,-0.037173121930039625,-0.008044261545637482,-0.008508090714440463,-0.012976546299357876,0.00009933908661204782,0.047537497880459335,-0.0212906844109133,-0.01988024743490346,0.029778906309618176,0.04440892596614249,0.0074438301928610165,0.0288250370843028,-0.00013470774845859458,0.04894161837514867,-0.047177942400887754,0.006162078298506465,-0.015493537081092,0.034439011328578385,-0.04071368942314275,0.04237482082350734,0.04781883562667248,0.031990137235500156,0.04954194950717092,0.015485365980577512,-0.00496725853053437,0.01753243827764071,-0.05190013765940975,-0.045966128096785575,-0.04451286256420647,0.009874171549047243,-0.031570931317023744,-0.04305635217990484,-0.05055650903495006,-0.0002641193184941717,-0.028839991630542017,0.04625133594376298,0.03464695369834193,-0.04199152861375327,0.007237000079927775,0.0171898442780415,0.0423385083990705,0.00954218294135531,-0.03195557760291491,0.04331481420678715,-0.0015920146702912887,-0.008760170190295149,0.03259058792895595,0.024973569421647055,0.04825170331669908,-0.03577313959250797,0.044125745117933976,-0.009860830411505987,-0.006446078749677541,0.04090380135937634,-0.02691116212799748,0.04224098537848669,0.0347899039455122,0.04059217457100521,-0.022353199083231787,0.01148168105069128,0.04371450499098755,-0.03177507428128808,0.02827780519814765,-0.04475469920262949,-0.0525504510806296,0.018298110262713812,-0.019943349449754327,-0.03944833254183109,-0.03558163383057463,-0.01670774382506919,-0.022436934496791277,-0.012035058602490538,-0.01615079817221505,-0.01091876009405085,-0.05141189243926647,0.008915312569850021,-0.04679785694586952,0.02999992025826821,-0.04787111655722418,0.03792287545912943,-0.0016143961256972407,0.027679662358523656,-0.01811636354581793,-0.02892515841811181,0.02274864184317577,0.03551912051843908,-0.022910001320672353,0.012601061360683142,0.010065098589019885,-0.05248560428412229,-0.0036931179995022575,-0.04187364589085809,0.05752265795905895,-0.032509653297292426,0.04766591984067113,-0.002039664102274914,-0.04405208236146667,-0.015494875579555926,-0.013047221464940632,0.03270111072451743,0.027422547553579358,0.03859934104121648,0.013094429466078979,0.04418832298484678,-0.037010749874894035,0.013765308935383105,0.0099770131469514,0.02422799915434359,0.04783123941793258,0.041622268052470046,0.04783795090360381,0.013270417832852157,0.005853740314204012,-0.015114978997096674,0.029610109717718144,0.029401979568034368,0.03496989895528942,0.039905236121625935,-0.027120464988872252,-0.025769964543439446,0.05282216871229923,0.04780701134440656,-0.01697790631831912,-0.003425414210142607,-0.049560184762223874,0.0032588381038520836,0.05491765230632019,-0.05118478784146382,-0.029868846370010242,-0.011963498763871106,0.035660939092624584,0.024527721584795815,-0.012459170206985243,0.045209994397559274,-0.0037332416987403637,0.001125688437031656,-0.04678200469027267,0.025421267526673744,0.050552571902133525,-0.031011071354464424,-0.006417637122111989,0.028114045154330025,-0.042162593905279454,0.04439531401784607,0.056500118070968476,-0.01598124629863691,-0.046400465381498585,0.02398944063641205,0.020967385909306434,-0.012049889449398844,-0.03766646486218336,-0.05268153206787857,0.0016567431446089477,-0.033634859813064834,-0.014040217470593553,0.00463084437257243,-0.035704076655467744,0.003485352894675038,0.05703730540662252,-0.008521796820481622,-0.008412436176370029,0.014159532210375421,-0.04217657031056977,-0.011860531091289225,0.008643764737581107,-0.03242425683822115,0.027227562197342427,-0.0016963541295749165,-0.031134649843263675,0.013369212722635054,0.037805127324217785,0.02464985168173259,-0.03550039599478395,-0.038721692566684826,-0.020050798105512926,-0.00011501778060145679,0.03175971496815475,-0.042366344700366335,-0.034205064942643734,0.03283042864206083,0.04286481683157475,-0.048006393004006005,-0.05353587793340114,-0.032410858324338265,-0.01754961929920558,0.00476912363161783,0.01140450904783679,-0.04847922223002181,0.005277701168500252,-0.013011512425793735,-0.035942149270766145,0.0036515029160376607,-0.03812147553722832,0.04976130648935889,-0.04632217407467869,0.04565631601231624,-0.016860348099844345,0.03724134277789459,-0.023834274936050826,-0.00977478241398399,0.030158557783059235,-0.009565374630552776,-0.056876993502601975,-0.04380158593290129,-0.02325188636966247,-0.021039784975213194,0.0472211460675386,-0.03295488401936907,-0.04036940325243846,0.010496407758035292,-0.05577664583633268,-0.05847355081562901,-0.030387977254041406,0.006144073306929874,-0.04471371240445318,-0.034706331405349865,-0.001840312631822412,0.020548074086939577,-0.022949106053544,-0.017601535813481183,0.050446939440408074,0.020462648260839635,0.004225003656420317,-0.002153433220319299,-0.051928606890104534,0.011564928789204868,-0.0026695480326620015,-0.0007076049858699631,-0.011084680721695961,-0.04975599467398349,0.036552462693677436,-0.023537893399007342,0.04381279136785169,0.0024738089702997673,0.0019092181037282231,-0.03861016299808493,-0.02790700066270272,-0.02118435162476765,-0.05192218754207533,0.044265672424430184,-0.022226676383823776,0.024567364277180228,0.02734565810864761,-0.048400356498924324,-0.00009379797086124483,-0.0010161148132377636,-0.05460452634613788,-0.013377982318921363,-0.04314686556728879,0.050332132485880345,-0.013423147795375921,0.028075377209874637,0.017729528933121092,-0.0420440817260148,-0.006294520822263411,0.036630299863215386,-0.019887790251547872,-0.0023313958623223025,-0.018398686220574,-0.03210882628007756,0.0005593629724131082,-0.017153626657329474,0.04099118264879064,0.03255300710486573,0.02020183156448589,0.020572364074099084,-0.002461641824583667,0.03228143929349492,0.008823046942359348,-0.00829398499106654,-0.024204267362035993,0.018234240869715354,-0.050874972998215584,0.056299382890932496,0.037031931176407185,0.015520663136593263,0.017224411779544178,0.027056707459209475,-0.027034718867068434,0.03383468496104712,-0.017281206279175922,0.03288125103951983,-0.054899612244168665,-0.008340911303181753,-0.010362584858367541,0.017303411660679058,0.0435731399754782,-0.0007548005112677639,0.007337551644895555,0.06424845671430698,0.009931183034100557,-0.002005965852277402,0.03778650078521249,0.00780369429661507,0.0016608356291366955,0.00008837299400414465,-0.01794124756946253,-0.004707987755264095,0.019269000126908385],[-0.0520366441093057,0.0032534059983363468,-0.02596016067165928,-0.003649279044496599,-0.01302719966455441,-0.034407578717885114,-0.017791607756161287,0.04316217638776039,-0.01803163847811576,-0.041846538583356935,-0.022801625854441555,0.013613333448491841,0.03227556898078443,-0.041187171250034564,-0.03782667477024449,0.011084667646570368,0.030703310548092923,0.04429462359611022,-0.002504776182949713,0.03122389114847425,0.007168083629393407,-0.015645822744703646,-0.054649410551106455,-0.04093107521172248,-0.02087553227509597,-0.008092061920040519,-0.008410269884210514,-0.020980183231690305,0.010939609502493045,-0.05399572686279067,-0.02599076176888735,0.013495579492842382,0.04283007951357001,-0.0587274676365941,-0.045342460016856614,0.0007617039162794884,-0.03706503331668678,-0.05188590708674427,0.03143112035939917,-0.03855795437333056,0.029851925207660297,0.005453132847062484,0.03488837095559506,-0.00868237005778911,-0.01782496392713573,0.0008730082785973807,-0.032386183210955446,-0.0065363821955609904,0.06394604925119568,-0.01269670834731445,-0.03860795394308796,0.030225307526154665,-0.04685046680750379,-0.04978079986137183,0.05186084881686532,0.0153566723150854,0.026883360120566697,0.04433164073939689,0.010491595752892791,-0.03270356389390721,0.052466306402949095,0.03441593739937422,-0.024487839086797837,-0.0032491067345489597,-0.06031395789737074,0.02317089473322354,-0.027669375109491526,0.023945582062783625,-0.0057785095362549435,-0.014989874395714519,-0.012804827304881148,0.008725134522938202,0.034892712520203734,0.029636223446593234,-0.011978392532467906,0.04890366050901381,-0.0005289406844494065,-0.003966807793109411,-0.005962177494468764,-0.023860982559413678,-0.00012492808612137184,0.037958816178777804,0.05380753862728504,-0.03627758443391653,0.048196660031248464,-0.037320893133669375,-0.014429989642456478,0.0016980775795362897,-0.013416241813111428,0.04198062259363984,-0.027244589519269148,-0.00832677629460668,0.0276935467895813,0.028181916492287674,-0.009329364553990638,0.018118256931262847,0.04027365139469479,0.04640164321267847,-0.0077769565995395714,0.03196596877046886,0.03499482802540776,-0.011445428638951406,0.041904254158872334,0.04101006466113145,0.0026731114052821513,0.03155687771593979,-0.035141945705270856,0.03043410176194312,0.04862135573714591,0.06327816336737976,-0.007436436503653107,-0.02870860984363294,0.04318444360859187,0.047096459064588064,-0.006994852930892773,0.06371223467572527,0.04109309402399475,0.04117863967644388,0.03874909275178503,-0.025276168120214687,-0.0011359814952245685,-0.02277780982700627,-0.016656551704089098,-0.02409502821494092,0.04987483942257866,-0.019218611325813185,-0.004059952741024511,0.028677617969568744,0.03131955590072092,-0.03857254386499374,-0.018860372977119916,-0.042748723486764444,0.004750931303916157,-0.010907940193709234,-0.012964412725516324,-0.0030198903453031267,-0.003113344109200135,0.006714139201346908,0.016734516130482466,0.0421210437632922,0.04108168057087418,0.010093319045921848,-0.021959991873368563,-0.01807246189736163,0.022129552057946655,0.015085688915267185,-0.009438438242662363,-0.046109466965592066,-0.017618111828032045,0.013842656263662436,0.02039747343251795,-0.038908281357950575,-0.01586794987622325,-0.017455319708562192,0.05566186537841559,0.009094332669562128,-0.02594480133434442,0.0041266310409121916,-0.0047369247191216355,-0.04463280475359536,-0.03530816156399173,-0.03822530211138079,0.0020097038491974457,-0.04877716585438132,0.04017497347751618,0.016104948793888105,-0.051005300066872254,0.050976134286797405,-0.050623508341013944,-0.04300570305307294,-0.03573545090094476,0.03801921963006263,-0.04809860932196873,0.04922474546086866,-0.046924349367380845,0.03532197723774241,0.03663257628709765,-0.00720421160645877,-0.0360699782134993,0.020876189862038118,0.04395202889146779,0.01178303173520206,-0.024408576058892077,0.006905130381793541,0.05305022466249279,-0.042928164912805655,0.03633226096387774,0.027623958737453908,0.04217558850922056,-0.04174838249809761,-0.026031825142959823,0.024109695127930486,0.034863092030817264,0.027554553804391046,-0.04099791219368664,-0.009433562126871287,-0.04631338280638177,0.004874353811574701,-0.046481526761512605,-0.010683666539709688,0.008266899314562174,-0.03910858253911325,0.051053787713867566,-0.04847226234942951,0.015846469700876845,0.04989914209904672,0.04017922973115893,-0.04382562162661504,-0.033841794643287064,0.016020541800584244,-0.04436800760409848,0.03801720141148376,-0.007942690002563433,-0.03721212205263198,-0.042349076785300095,0.045407598467272645,0.048599768578064015,0.04709375812580332,-0.019840933546308052,-0.02088639374479659,-0.0047630721956381525,0.043940949609486996,-0.02566198689687581,-0.049726082282993515,-0.00567798856508044,0.0533438112946661,0.0377681421539901,-0.013742778765197854,-0.04056463803781347,-0.014019699992772035,0.04259757212670621,0.0014037628290173082,-0.025624598251030018,-0.04076603690958572,0.008202761173101966,0.020662313907842844,-0.00899313321919635,0.021775324710775416,0.04648992375098779,-0.005812907650155023,0.010271942489178237,-0.01762631405278302,-0.002710696976256603,0.022093392705670515,-0.008684803157512657,-0.040549247619938486,0.02685111459188373,-0.0327092727173705,-0.030115193722096218,0.011077382521121242,0.009794895245885539,0.009225211184400882,0.04277626191607818,-0.03450019317482651,-0.0444745775507942,-0.03679809658272753,0.002762399213737137,-0.0064377168275016544,0.023966596430865163,-0.013021502063009623,0.03491633472751865,0.020577899747078028,0.034275696070521874,-0.0524552076107161,0.004081905611617087,0.021034475019248426,0.01061894993802212,-0.04532270905398737,0.03069638305125376,0.007831336509779022,-0.0335861906343057,-0.04412765846462567,0.029703627627046557,0.019359585315443968,0.0505679868382612,-0.00974206131308144,0.04327236562421873,0.02840419185366687,0.029135743572162368,0.00569936313732932,-0.002592074798081542,-0.02029930854642796,-0.030336059563896574,0.007802258762599029,0.03353121360247235,-0.008614787820698164,0.003284451587014213,-0.050023150961697564,0.03832765786560651,-0.007797580491789239,0.012977285756324787,0.036835490783915105,-0.034556595231469936,-0.020190542689742526,-0.03311851785838834,0.04294181779189096,-0.04768403053607569,0.013197522210688453,-0.032255870472569725,0.007053490558502963,0.04015208099379315,0.053174972840002444,-0.03989153902618974,0.0031238574107160764,-0.030472996234281704,0.014491501880807181,0.034398227351737413,-0.05073629017354287,0.00618963162896958,0.04200670089056857,-0.05235380782988474,0.05535951641072217,-0.02720772123275903,0.0434781060730513,-0.00010322045186355168,-0.01637398329975748,-0.027291077685107877,0.03870430220687139,-0.002481114864021411,-0.05452694744443134,0.010977189029016319,-0.049197428117116616,0.04727916288665719,-0.0199196028902636,0.012050125012451467,0.004048978839848484,-0.030142503370240714,-0.05201514227396401,-0.017063564460273347,-0.053931303562817424,0.049040216339213384,0.0018503774016808356,-0.045093858738332326,-0.027327917886456943,-0.04850990207649154,0.0020469537250582563,0.01624414317041203,-0.03163355705377341,-0.0436782958751546,0.04256194371545779,0.014355517241280825,0.021554233158997654,-0.05216911339688433,0.019818622980970202,0.01044633305792414,0.024599401975437044,-0.009458696804484745,-0.042129910850766665,0.01930684794344337,0.0028409729187986576,-0.018795277604544178,0.03640231222236433,-0.03188180258357235,-0.04282017448795257,0.04035508889508098,-0.028134762078730106,0.03663868456088361,0.05195544355471111,0.03192808888993725,-0.020644942717472293,0.04796667168602683,0.03871033006034436,-0.0478539154989595,0.048633992195033865,-0.04633421983917815,-0.025080838768141957,0.008752686113167079,-0.034710260890438556,-0.01540251220714837,-0.007735143782530749,0.012390395973401387,0.015239053984342214,-0.04432044587815031,-0.013624175042746961,-0.03158772596222283,-0.042282610600612766,-0.03445026967772862,-0.05374638807755542,0.04717226563752106,0.05140205705528906,0.04756644214641341,0.004305736486039108,-0.01941302566992832,0.040681862073786663,-0.05033927583573313,-0.05548254411629581,0.03471970404397146,-0.018858508550683772,-0.040446005866301635,0.03766753635020933,0.03223244992793144,-0.016318362628986303,-0.040653683190110305,-0.00825014375852128,-0.00468585467546865,-0.0026267231139371202,-0.008157602829802033,-0.03902551556980053,0.03480667972767594,-0.004977509183492988,-0.038454287679776725,0.0036425577370762883,-0.018984983377496174,0.019378953100261217,-0.003236071500678424,0.031393138875825566,-0.004784586260565362,-0.010185873814264017,-0.001659656025730827,-0.005211089045072455,-0.009218531851158743,-0.0375697002684448,0.01381746869359009,-0.03612954324278095,-0.010676340171343331,0.005990520586038707,0.030346533968343074,0.007153975268435556,-0.02509999902018055,-0.04094513198873922,-0.03590917490018719,0.04648564882827207,-0.00020136685804530145,0.04450796693515747,0.060414476497960175,0.04495459466172315,0.0111754699905902,-0.005765944549959716,0.011445748681670045,0.027930972142899576,0.04715551661575874,0.04056048605079533,0.03237328623616399,-0.04863460340777453,-0.046175314849150294,0.0015695459290044195,0.00942817730348056,0.051946207788640605,-0.029525254939964666,0.02719917141336385,0.04021442443581771,-0.002565760076987201,0.022522185247408164,-0.025663721275225232,0.03608045167208982,-0.04189074964919552,0.04619963848504502,0.03420801350182526,0.033227789631615795,-0.013382715180274288,0.05844811125807727,-0.00498881712937839,0.0381656733901555,0.027277229646900394,0.052495411328786684,-0.04913252039439359,-0.028608144067968192,-0.0025759305179918787,0.025679461479276574,-0.0021149557006876437,-0.0028103524994354963,-0.057713843095017585,-0.01215674058096262,0.02826443932491684,-0.040589193700384746,-0.0376123945175759,-0.029982696907134385,0.0046471994818864356,0.02322922122859503,-0.007170398112923832,-0.033579759476264216,0.026063112517385623,0.008037673307197355,-0.01969423307494142,-0.023504253927434774,0.003686402752607753,0.01763398006738786,0.05055169139431127,0.008053756427877161,0.0023785938348658557,0.02419130445116386,-0.029340047101047786,-0.013766957174107742,0.03309198177918848,0.019669534632520143,-0.03671225565806634,0.032538674464680874,0.05338131270567624,-0.02353064512032496,0.07310548750565893,0.07583929679600761,0.03404914519242619,0.050712967264374444,-0.004611317134100715,-0.031139997478054703,-0.012653501571875099,-0.027893212005669955,-0.03847117434248306,-0.0613234997842594,-0.007390607560175322,0.021001286276673317,0.0014057995890332233,0.02405295578360437,-0.05620061860001225,-0.025908079471469926,-0.010288301498103555,-0.019141983049134007,0.020816986013424053,-0.03998516945079674,0.04729333543258929,0.006631752544390861,0.049525464148542815,0.0012050109584114867,-0.03870280525696644,-0.007017324045413219,0.044089166263514015,0.03674921900892426,-0.014399478984747666,-0.014464150272345704,0.06761936413037511,0.02438055018933106,0.010199836077061947,0.019697257992584608,-0.0018005611573868822,0.0091479821208096,-0.02025313314899659,-0.04224451844070548,-0.04331111653133116,-0.041256045411170686,-0.001477921251664448,0.016334741486958657,0.041474777638219745,-0.017721957179572454,0.04688599983244424,-0.03341922384080163,0.002845654411344147,-0.03938334560467518,0.03973818857074105,0.03637558140266552,-0.0025951043025438623,-0.07487779231721053,-0.07336764030008772,-0.0344549445583337,0.0006649836536115215,-0.01284288336723693,-0.021702715383698612,-0.0047445520934323,-0.049846791404286696,0.03599182321757527,0.06200518076095261,0.008993759124064518,0.032716968693106724,-0.02662954392326356,0.004888711984383629,0.028526514744085688,-0.0034039892278720217,-0.053407747022150384,-0.0058587993754418664,-0.00873309635211139,-0.04145021264689365,-0.052576209431516065,-0.025343941297448765,-0.025231698682424704,-0.024135082341195588,0.008025360765063872,0.017721402681275724,0.025649319305245343,0.02970856134170275,-0.06035837207487928,-0.08173238656402111,0.03959080414308816,-0.009519009083439023,-0.018844393609891985,-0.023953600861731223,-0.025544292587211123,-0.060524589499021605,0.013853982021028173,-0.058947184556345934,-0.08238040462364632,0.0023548743946731183,-0.004807912087702676,-0.08019446320669736,-0.11535434071569411,-0.03270970991272069,0.03683689922307068,-0.04231723602647001,0.01783545616021049,-0.06259547531942446,0.002788723202766574,-0.01582741330790394,0.02228997673828191,0.017621339758441473,0.06615326002591888,0.010645076294549428,-0.08553932287944596,-0.07215027014282455,-0.01756543191011112,0.06611392648944968,-0.022438070029905662,0.05000846096520745,-0.016102109228030258,0.012722636120800965,0.019741859648427406,-0.050589743286034924,0.04420437714101281,0.052257532458624315,0.05886144601634117,0.012104235902384112,-0.053610865965002454,0.029330083740153313,0.03763753863859927,0.04843532719097472,0.06857132267918606,-0.03555805050730397,0.02164913187113338,0.038949709388037726,0.055452646350067615,-0.005696246570272205,0.0773693410890857,0.07890412855523886,0.055716827585999246,-0.09822639180245987,-0.031140632017225958,-0.050954800880479566,-0.019227414034990942,-0.0145034883834174,0.0003468627170550697,0.0572906030452738,0.013670107756089374,-0.004847890913227256,-0.021002674635060864,0.041619697838537396,0.05407650644482176,0.02050445577667971,-0.028575190678976622,0.06821931852123256,0.048786668095969994,-0.0019002647983914446,0.004236794782784388,-0.011006355040301837,0.10077168021911678,0.07570563839424765,0.04894910004175295,0.01630415649228716,0.07350593971794875,0.054136647678586274,0.018652861178273167,0.07080347072366192,0.08725053419075639,-0.013003742885226283,0.016044559879138123,0.03213314406701632,-0.04333499468637957,0.045425358300778464,-0.016380930320226098,-0.016022492186690922,-0.06315602023308153,-0.033155133629536884,-0.018056783025973536,0.022345288974477243,0.059066212897964265,0.07735367624879601,-0.028467098755967542,0.013921571677692103,-0.027202539904905933,-0.05451750085558247,-0.021023856869032936,-0.0726296771456715,-0.05146685681903294,0.006310443316067989,-0.01634271589546754,-0.08530473321989171,0.0217667602631262,-0.01486161958456564,0.019398520904507496,0.007036730557643138],[-0.04674728099980217,0.03321238601636126,-0.013932720666624071,0.02210425597966566,0.0075438454733564204,-0.008005366850468824,0.0019628634852560216,0.008745788408760802,0.006228781112007005,0.020001798568430245,0.010308235866714881,-0.026121309267223888,-0.02963641615847048,-0.02968583823474324,-0.01796383762921063,0.053785284460100544,0.014444941709706225,-0.0043798166753123285,-0.03308342050454198,-0.055451864854472836,-0.045593895785603814,0.008194400728048484,-0.03953455669869638,0.05863377166837762,-0.021768021933890852,0.00166380235985621,-0.00807365176550524,0.005240026107952357,-0.03639174040862929,-0.017809306323435078,0.05020433504155102,-0.038668174076992586,-0.020139448261636304,0.03769906620493,-0.02408349471742615,-0.03098372889633759,0.048705430408098625,0.00904783119684199,0.03503879235383708,0.0013835115464160995,0.005351230611607678,0.0592850409901861,-0.031173035407793738,0.0012565846828292242,0.04271439516173667,-0.04038659905296741,-0.02698229804761969,0.05976328735447369,-0.003991282590883944,0.013942988238829999,0.058983755814557226,0.040263248675190925,-0.03783470511569083,-0.019498861639728648,0.027146530465720898,-0.02209172717966775,-0.0026010099169741403,0.056425823355759526,-0.014598979932194873,0.03539781260545314,0.01737951443694505,0.04690735265564769,-0.04113526419425813,-0.024222120303061662,-0.03949871830893358,-0.010023857848233324,0.03488070907060083,0.04618587347678597,0.04766048137373233,-0.0334085525057512,0.02151867961837623,0.014357049874229227,-0.05618392217148206,-0.035828193037499574,0.05390665693726537,0.035767507072417506,0.014594174438420017,0.008529189500362097,0.03607463446038541,0.030212246617226202,-0.04098179030474675,0.04106412808173568,-0.05254478859073539,0.007901647218713363,-0.055438378532177264,-0.052521994002077355,0.02680571102332126,0.0630706325921694,0.04118415503303805,0.056918995746596694,0.05378217841873552,0.009248643331364026,-0.04692627808099852,-0.053012008147013,-0.06483917712842427,-0.0035283719225338607,-0.03439650863297086,-0.04156287716833016,0.03056623638526916,-0.05037005504356919,0.022256780260294522,0.004792873447065434,0.004252987183787642,-0.001712101777488108,-0.008879233419114523,-0.02928384071456466,0.04539468961618915,-0.003981133056031356,-0.012496671904039244,0.004841877785503986,0.002391657093425441,0.014769829765428,-0.00032334828448708704,-0.06458691987429714,-0.05246972093464122,0.003794129338581331,0.04949206259916178,-0.027989259907846727,0.018504197349677894,-0.02569935401616996,-0.014944859604159004,0.03602558650344927,-0.03649186352854639,0.03639392322056212,-0.06350720168205214,0.0025732287546473423,-0.044353018721708354,-0.03125697698571126,-0.051237401775127214,0.03120155406630186,-0.04267598434914797,-0.06393840871939518,-0.053775833812734056,-0.023128664894844282,-0.016757169476306802,0.007043203067402776,-0.02560738071335658,-0.03071071258018018,-0.03939601091209023,-0.0017712362975909018,0.012442162303286989,-0.017952281594103153,-0.002898183157604418,-0.006844246457559327,0.0003898815087865053,-0.012339872660128206,0.024952746732615928,0.06632035574949081,-0.037064577277468265,0.027755039078437536,-0.035514153229409914,-0.04286062656815854,-0.04006942188693235,-0.03399833500554452,0.048103409563224335,-0.053188326269542265,0.023874034050129958,0.04008496017041642,-0.004526681688776112,-0.009375500871119467,0.055226958063861124,0.04648939440402158,-0.0003070645353189169,0.021419820364518834,0.015776828673137306,-0.010836292076903004,-0.0230819425870236,-0.007893765376097744,-0.02850815226928208,0.007468807190385606,-0.003996858601675381,-0.04358962831408188,0.046795286046465816,-0.03611362566640661,-0.01585001004432976,-0.04549618551469084,-0.044419625093543615,0.030196330226036565,0.005030370050568315,0.01707275648463616,0.034550487609086585,0.0251023586986242,-0.019798289653098055,-0.011153997440032993,0.04074954786227622,-0.05098488138616008,0.028875999111921662,0.008824677064677572,0.0019387670399786572,0.004124435460829686,-0.005868678133921014,-0.002889887565946342,-0.048551786481253904,-0.048724012058456063,0.0022879460132410323,-0.0007794738552416537,0.051736991111203355,0.019456316546376497,-0.03867670182530498,0.05379483701083193,0.027452443128528452,-0.05439189763051612,-0.05270261843494392,-0.05320457155184463,-0.009205241315498271,0.011914803976841647,-0.05012957047533006,0.003987766581758705,0.05340606010932823,0.04013512186759763,-0.03897392806659729,-0.04133369477417491,-0.009986826626055156,0.03622704077860621,-0.023565895990862472,0.008274102153061924,0.033485879752970925,-0.007389101411057945,0.008387648984401617,-0.01199652329815588,0.014164782105861591,-0.016891810500445574,0.020335460662688168,-0.025289726677814275,-0.015980408843805496,-0.0016039826234767315,0.020657683923771347,-0.002761428123107861,0.006747310809643912,0.0356076799853418,0.026420209033718573,-0.033530442473718614,0.0144131930569105,0.05456317132555831,0.03834980491125944,0.023257571782617087,-0.033166525683671635,0.0168971943988685,0.036623700835659766,-0.009899458297005649,-0.03257413935970838,0.04922284002155327,0.015668311440124507,-0.05465868370110604,-0.02939849817714645,-0.0361698061419199,0.043515718630866854,0.002824273473400094,0.03106562592331537,-0.04895337575546429,-0.01374353932232907,-0.012168696720457213,0.04315161605671412,0.002348849987111664,0.048253299751159516,0.018594823144582828,-0.020300729449256646,-0.003726326258742377,-0.011267579808744531,0.05230244707192785,-0.007526509469078777,-0.04249180484506771,0.013333874841042426,0.027699105295655828,-0.021435723570712852,-0.05104029860509048,-0.03430982172436583,-0.043643412733341595,0.009057362188886217,-0.0028609789526113562,0.014460978862206755,-0.023191403836800024,-0.02105986555361414,-0.039642920670092965,-0.030151057580222764,-0.039042226368634754,0.0029111599010265337,-0.04889585694161246,0.04056996322439958,0.0496651462518033,0.05505666375961418,-0.014840154431447667,0.0035085138513751574,0.02247946193612015,-0.043473914652971984,-0.047423221238832185,0.01962400622373297,0.04344144952393324,-0.0504733239144149,0.00490156385474633,-0.03206544959035284,-0.045440688372140034,0.0510657291915034,0.046760909021891096,0.01750428606433555,-0.008282159073793914,-0.035351006571988745,0.029260000227315147,-0.04000196994411011,0.00722230838758083,-0.04139461010946006,0.04590822902417032,0.03685064817633956,-0.018081173456693213,0.04652003911702333,0.012849078821433184,-0.02790601150422119,-0.011173034367109407,-0.0241534598626888,-0.051431482726707965,0.025329222084768465,0.03603255558877003,-0.02342585045040704,0.02792579253131086,-0.03210049234982223,-0.03729950991223904,0.02613875236153745,0.03913100517626134,-0.046451121723736846,0.03582395292270489,-0.022837382334897627,-0.03918082908831582,0.009272919916046765,-0.006388836807078367,-0.0014005233249158636,0.028463879928749863,0.054083703478223014,-0.018311865986765135,0.031452060682917886,0.011124679191819862,-0.037129643096966446,-0.042317845207473094,-0.031466267762141384,0.02341601970793124,-0.031720818820392814,-0.01569369048272359,0.002353817610908588,0.04551210955743429,-0.04120020216225172,0.028427159118184598,-0.0319019466474275,-0.028054166660725067,-0.04999862509725671,0.008414139019718315,-0.021567204600855917,0.04635852628517969,-0.003717937073829302,0.039643232749996364,0.020987922679381345,0.031117828216810743,-0.0032061164888954417,0.047309145773981605,-0.029841401575490114,-0.04680446528954807,-0.01415667463556164,-0.019810499877709185,0.04556348476346223,-0.039372696244640196,-0.0031110150553225317,0.05792310878092304,-0.00576197027187084,0.030445089858527764,0.018169585329103847,0.05192700535657715,-0.00086246933925196,0.011476271111857882,0.05633195393928345,0.038229860667364585,-0.014510446555148679,-0.043808091033836316,0.010478907016434523,-0.010153623418756247,-0.017302782597656025,0.04726981017754337,-0.04600302171301563,0.03757705030619044,-0.04651581187994189,-0.03367595350401801,-0.03190662662725052,0.0018494155913686232,0.04900581792904722,-0.04683096521332623,-0.007815017902737968,-0.0062710023010441925,-0.03637366988026584,0.011506821377900127,-0.05156876961765559,0.0004321143483736578,-0.005083152939316191,0.019115420398770223,0.014600130102127974,0.037679738562333275,-0.0226302842433764,-0.0023850421233777576,-0.0025988374413998283,-0.03006261921155259,-0.0085321541707493,0.03718302056577218,0.018476189127030827,0.054412330647601675,-0.0009498142488143253,0.035590464934489155,0.002619904899307224,0.026496639669928983,-0.028427240049675565,0.043860603117821265,-0.0006316485779744881,0.024830339878682686,0.0000906944654046154,0.05357595666736538,-0.04579201936715977,0.03392206262795783,-0.029857296843441974,-0.02729836480745367,-0.05321724702576908,0.006285078883638124,-0.044463555018343634,0.05274347874247683,0.038748917642083464,0.06968788931135621,0.02267143766597249,-0.017407575009419272,0.023512091133493257,0.02242606958969935,0.04350378902255965,-0.019723863284511037,-0.017183188421449645,0.04185186030081891,0.053056651091162886,0.05468626781703402,0.05311735790273415,-0.019781981182680364,-0.031174899495627944,0.02810828847085598,-0.009473337545575807,-0.04549150318749463,0.0071589125800616635,-0.011123437366881003,-0.07021096833370565,0.007146087128983029,0.049480641473828614,-0.030431565042490567,0.026939521837017547,-0.04131461893516393,-0.03969379582811157,0.029353361825458453,-0.05037406297629761,0.0018924138233549204,0.008059329485436018,0.03778409048578645,-0.04734850011230114,-0.01684041534388699,0.023952043807032888,0.007995321278939727,-0.017218632193870095,-0.025157972525223043,-0.0017123897495792196,0.017933069671153407,0.05734939369851604,-0.02744997238379957,0.02127034119989479,-0.03643612838263207,-0.0877487352505233,-0.010106736800908176,-0.00006941629807866944,-0.05990163840611666,-0.0033075308621656647,-0.017447163388579167,-0.05727488673863882,0.005745520617616362,0.04889494097836553,0.04398849031889525,0.05082641074127266,0.021989105967054,-0.001088859379072641,0.02379523300171501,-0.03966494520549746,0.031110869208600372,0.02379882796926244,-0.024777776546849182,0.02416210516323422,-0.016294731561660062,0.005424388631310788,0.021387069019505742,0.009707915546343806,-0.02471517104055815,0.026192288578669086,0.03829481218258141,0.0070445996833536535,-0.0225457265036954,-0.017606060891296918,-0.030432556279930918,-0.010284393382170905,0.02323783227457737,0.0031815535661425852,-0.03635218056585845,0.04370353149696318,0.04498491135748032,-0.035367045884243664,-0.02238619373779408,0.03844810851711324,-0.04210016975523675,0.0018383770630411244,0.016807421962969676,-0.05756507538889232,-0.053038142957907757,0.03296952081365474,-0.028358349838666533,0.04015841181993896,0.03815282255257295,0.04576512689186027,0.003309163670199462,0.01998112929690283,0.028378967239180066,0.018471401682209523,0.01746414734450242,-0.01781559867174783,0.033753686719490424,-0.04433366494315265,0.031131053561804952,0.025483047670230626,0.08135387884298904,0.057798441407243016,0.044145900973451106,0.04191518960657206,-0.04906272543246886,0.009582598015942618,-0.036247439013701324,0.0024906396118902245,-0.005937074675904389,-0.014079252453537227,0.049972376317165355,0.04437807106829894,-0.022460096712323435,0.05741540791224218,0.0915202313477662,0.02982851572854081,0.0004749949431116277,0.005216365030199291,-0.06578091988337417,0.008443307333046662,0.007195323569702507,0.01860809413441154,0.08542287161441892,-0.0090632818309291,-0.0031338957139107424,0.042135417926311924,0.05678271160780954,-0.024667501736682855,0.08951545883807333,0.013498219741815264,0.009624793922167174,0.04598501557535936,0.05155987141531855,0.005814259849610215,0.04978471133268806,0.06063953792408256,0.07042863167325045,0.007832849118838239,0.05068828503834432,-0.001549639894182082,0.06185666765118106,0.02563860565679397,0.005810080241397094,0.022670277599313633,-0.035864956027020715,0.012893002223478306,-0.012456571867443115,0.12380955459881696,0.04858344896139411,0.06051013352157782,0.030667246573462467,-0.024490699291388647,0.0032629267274568445,-0.006126997963093646,0.10461365084087326,0.07418855462468768,-0.039072931098149015,-0.045208226195081365,-0.055458290767185725,0.04705768105163915,0.11136805995461589,0.09873021750352381,0.08278170043910256,0.0011640605194767751,-0.01872673133128016,0.04210023285283709,0.061666231644189134,-0.022572022268765268,0.025695759988927227,-0.07318006148194885,-0.05117951318261181,-0.07724487948375343,0.006549568747752371,0.019212938438853664,0.050345040498990565,-0.007725162191679797,0.02284424701734921,-0.019153659493316166,-0.04964881700268479,0.010935168815280309,0.009202014264387059,0.04149773763030304,0.05753285667372327,0.0549450762905899,-0.04900700468889998,-0.03001193296414657,0.03820550143240378,-0.02617000112232193,-0.059490884472620145,-0.06501835212812793,0.012115531989091802,-0.05096547281429266,0.025666562830231932,-0.016341547779676703,-0.025113254726437228,0.01265503250596022,0.05182830975148709,0.008167206261174908,-0.04764185530236056,-0.011592543243628675,-0.1068767171929491,-0.0796355454662749,-0.033928171312141035,-0.03627088145528222,-0.08587817534413145,-0.03657738213753187,-0.0166413142729384,-0.003191187760712225,-0.012778556621075944,0.06915430422184916,-0.022028655920622985,-0.02737386111098949,0.08500550098626335,-0.010002593539157398,-0.09201266441209943,-0.053041355387982284,-0.034827482872491586,-0.04157354920010537,0.023362614263430868,-0.03758805125450468,0.004264814532749346,0.07368899470735281,0.05118840315127247,-0.000534431750952214,0.025981951374267828,0.07685631817462096,-0.014454022148147026,-0.044803320373236456,0.026451025774991737,0.03249200379911776,-0.03195775204302066,-0.02573748178691681,-0.06397288673649973,0.06631522852995059,0.10830386908872522,0.0743685711608542,-0.008995625946859745,-0.027304558410113134,0.04779576367820627,-0.05792808445503512,-0.031442639540123524,-0.015960605215043215,0.03339916226127198,-0.04648399259697868,0.022333478072787277,-0.0009210878896655373,0.0005217829329041702,0.04309829164017136,0.007377952366406195,0.04819820477829332,0.04225279608686347,0.053512548498473665,-0.034642206352748554,0.051686314852566195,0.016747983051285976],[0.04288196547079371,0.007839549489224761,-0.023118996874001152,-0.020662315061595583,-0.04203197217645909,0.015692905259381173,0.00021248962689923592,-0.03801335359199025,0.03473240290550971,0.00716593640505003,-0.009011411330918418,-0.02733845297180636,0.05338672320297466,0.022942244263034248,0.0021379100317492398,-0.0019380195445039057,-0.04939158229017809,-0.05712710594771909,0.021440029823494397,-0.0017940211732098662,-0.0344849919440159,-0.04732566827188785,-0.03393579864860698,-0.05189051896265501,-0.004223528390999465,-0.03445610245485399,-0.03871660469617417,-0.010042436868257548,-0.021552875244977114,0.045064824045150505,0.036136411914531645,0.006734084389280037,-0.019254273503140112,0.011626842622970633,0.03403975161999009,-0.02323805081638936,0.026516428441594127,-0.022094989141470626,0.0014686998853783335,0.03063563597664916,0.0648480206331655,-0.04491943460712977,0.04605861457947807,0.004861145459578191,-0.008614530093053411,-0.062096889127922994,-0.039520738337433865,-0.04919594992271686,0.019097423911094785,0.047352096941300506,-0.01817796556004562,-0.02083063212031644,-0.004321404137384,-0.03702307710922447,-0.006654177069640376,0.04300679139209753,-0.02690521147866809,0.005365183526025828,-0.029477056715467402,-0.04864302574962597,0.018325698564905228,-0.039642606287263585,0.039086438967772454,-0.02220943628434947,-0.005250826055275108,0.04931854390993519,0.01707896397738177,0.001660507370640347,0.04237070666505458,-0.062274258633567926,-0.004773137349981393,-0.012792747583379551,0.05119156306671111,-0.026805859485271307,0.02651815038506158,-0.024313514064771672,0.0471227823774167,0.047659722329852675,-0.03981786757964444,0.006807816263129805,0.03989812246925839,0.02537716409429163,-0.02640795870691424,0.04836638779715153,0.04461544437330249,0.0224142915941139,-0.03338667556537762,0.018597716900693714,-0.0012219288866924796,-0.0063658481373155456,-0.05369401250673256,0.00970389534247577,-0.04637628295530276,0.018731801795160038,-0.04723441680962137,-0.02950597871531648,-0.03610554234196628,0.0588080571092149,0.030755885586045497,0.022109870156049476,-0.046384101700970376,-0.025561497378567145,-0.008982753152826154,0.036852522416324925,-0.0005955199595647277,-0.043282480178694446,0.028148270595580036,0.02174425386187595,-0.014630324649394656,-0.020796925850833294,-0.04199785683717037,-0.033325982987403795,0.02614548088464621,-0.026372330728323835,-0.0003159389551053983,0.00639935924548218,-0.055487386426424146,-0.02898818660778195,-0.04815942559664037,0.039600375817476295,-0.026892654299016962,-0.0485255617240904,0.0401509832465693,0.04071997156493557,0.013878236594925921,0.051032122265325754,-0.030322098074982345,0.01851860804747052,-0.02728158270910024,-0.020081416814608254,-0.05340679631788498,0.004586207129817727,-0.03729329796731134,0.044874008083352734,-0.03026398012221203,-0.03917575120919219,-0.03304761740066201,-0.046207103078836124,-0.030354881709684426,-0.012756429557474795,0.00784281507749999,-0.04070115953112231,-0.037623056095602146,0.003531703649590281,0.025253402315844456,-0.05354330648121242,-0.034971791289020254,-0.03269298882848481,-0.029573055251882942,-0.027356436474906237,-0.03958681448615541,0.009869426680561564,-0.05338463225950539,0.00005395616850310767,0.04916087879472356,-0.022751683651914736,0.03244106211013764,-0.04682125015421019,-0.005990692092871414,0.034269139667704694,-0.049661612460871536,0.025029652743821185,0.03449139570358329,0.05448498934816532,-0.04133571297951988,-0.0559808815561677,0.010462150371514637,0.018836793591487447,0.04966939128376828,0.005566293042895888,0.025109837838545635,-0.02784288369547394,-0.047686077596054983,-0.04533919047962858,-0.0195754525249483,0.04722023694945822,0.0016549901422670491,0.03881527078237877,0.05303599427589857,0.010376325990252422,0.005939968631677039,-0.04254392878214742,0.05334128901560897,0.010276570311677372,0.05019474157134372,0.02952915202291415,-0.04034768728125161,0.00357103897188777,-0.020863323528593315,-0.024228670271911182,-0.00552514061418614,0.010043963897779814,-0.03532469429535556,0.05342783797591242,0.052663402915471086,-0.05126953488546457,-0.0011612766008094364,-0.051151475773987244,-0.016687679146197155,0.03582282889859804,0.037753528793060286,0.025369826772276192,0.024439157122502053,-0.017194212351779665,-0.011999008138180878,0.05251336886687801,-0.031813030629949744,0.03792122350245483,0.04565456008011807,-0.038960219065931605,-0.03607788712912961,0.04151470371814347,0.0030281364967595027,0.03979848629213925,-0.027856202875210182,-0.013349270026322217,0.01313379540113685,0.01032971469208327,-0.003446472867763375,-0.0023511944738543087,-0.0485470850009209,-0.045641350184735335,0.011291258960603375,0.05405514017413925,0.041462361159684484,0.037320870595757186,-0.0067994434613261705,-0.01588281345377605,0.0306876789435694,0.033779874571411794,-0.029877786475791392,0.053432626832911834,0.01898957724914402,0.028530476196641254,0.022959044885749683,0.03504779292258811,0.019260160230263862,0.0403778029806321,-0.044796774672066865,-0.0043267680541982335,0.002905250994439887,0.051556438333607776,0.045800736136719894,-0.04516837396773714,0.04258377901879186,0.030977306962297686,-0.014452298228164831,-0.006438785281917334,0.04295509309942722,0.03412667707486355,-0.00543203567418977,0.006308966721505509,-0.0015413683804894691,0.010110264085388862,-0.020659309196696746,-0.051300112311463156,0.026626153390845862,-0.016955408225211382,0.03508261945733328,0.03355463531840056,0.012056631713410808,0.030999193652396635,-0.005181699103692604,-0.017595015226122866,0.022082786355814156,-0.044964429343084526,0.027514070350851,0.025989546325755668,0.006309166219406046,0.011143152010420631,-0.04237540275312875,0.005083553256580261,0.004737244966261628,0.05246981009860654,0.023662276540253494,-0.05387504420742961,0.02488228788244328,-0.00042723325496169483,-0.03090032528987352,-0.04069673408297913,0.05346736321846171,0.030739256063423443,-0.007535830350779814,-0.013128999235097007,0.038703122197151704,-0.03182106815052585,0.0008308250029276682,0.026834938910419333,0.04620025135684418,-0.04861697826893449,0.02643253776214718,-0.03175051440784143,0.036380479759233454,-0.0085949482240366,0.04035413084209611,-0.02340359296203833,-0.035717974417117423,0.0019081692393574,-0.013312186732495658,0.04579633627078856,-0.013044171213799813,0.02413597737484902,0.03493985886916659,-0.052088903809887024,0.050047112825765704,-0.032920536028546325,0.006355783321117497,0.00011840096817218143,-0.04237585236213144,-0.046500261419284865,0.05449163660641784,0.0032194655615740892,0.006136139543017551,-0.04396321369444746,0.05425626661559215,0.005297141582067775,-0.046624801697927744,0.03730826648405948,0.04068690444821749,-0.047634387383242445,0.019471332445436647,-0.04703685672425257,0.020170655966593287,-0.015221455086416666,-0.023526363392993445,0.005576742068422294,-0.02822451037738547,-0.010623479902371256,0.024751348954014096,0.017130678717086522,0.013768071637089319,0.0014972924658440767,-0.04640240053281984,-0.022125614712573533,0.05502096492362827,-0.0297582313645566,0.040149178385153694,0.01170933074117933,0.002279979434673562,-0.019847138121617713,-0.02738019086440521,-0.046440367986905165,0.021914607041507994,0.02412119061529405,0.023995545395972623,0.011703369702912516,-0.0052422689692080875,-0.051050667587150066,-0.052138150104372484,-0.053467620405833235,-0.023052188148823025,0.01911687388456124,-0.04058219906804602,0.04765669405700458,-0.002794841118635651,-0.013904690285464401,0.02006750390509399,0.004936245226156611,-0.03645804219744981,-0.0053921915027861965,0.010901982662435805,0.05144238232470171,-0.050895692352033284,-0.023959171952282848,-0.01794457131483146,0.05686323379584133,0.017418820240899614,0.01019803718725075,-0.05514580550735495,0.02431765378920866,-0.0058048789244613905,-0.02131378051733772,0.009372828984669578,0.023145278509694393,-0.018760243402066796,0.034151202372098684,-0.03457853606764354,0.03579233553986938,0.04515735713583192,-0.012237035185583047,-0.030248098876282763,0.0034256190708780907,-0.013905507998448002,-0.037736466462753235,-0.024096086922737802,0.038543486876514876,0.03780267088224152,0.042125948060737904,-0.03504993892217569,-0.04463193332018123,0.018932296083762692,0.05540440797773938,0.05629230874571358,0.050147678790506,-0.013729504549541813,0.045295562213010045,-0.044464754446395346,-0.033115430701484413,-0.04307085175487683,-0.035547111420807936,0.03665111149646452,-0.004045058287185416,-0.01877375103521206,-0.03355431712343365,-0.036215612206528164,-0.03387930165184412,0.017761528607927905,-0.03403989925585005,0.050852362228570105,0.045393462060869215,-0.011122655459233277,0.003129751073746286,0.039925250137715355,-0.004108778740333412,-0.011494466368078944,-0.04035394700197927,0.03717499565111655,-0.05444271525055614,0.015976945424962582,0.0017600735174781485,-0.05476374791889961,-0.04179333849429876,-0.005567887815375362,0.028692618225927842,-0.040430100920066304,0.05196441681808534,-0.0006900397733963178,0.009718698711088243,-0.03078315842113942,-0.034355772976392085,0.007505444566410206,0.05051044671479525,-0.042377710804984155,0.006721234004461728,-0.01539147823219704,-0.050709128221351464,-0.025084128942201956,-0.014173891011279405,-0.018631035164364748,-0.03300860174328669,-0.028227630867894767,-0.020881495834781553,-0.008121197917603202,-0.009076582448611963,0.03859918189688944,0.05521584662039309,0.04973454615324263,-0.039299015810197645,0.05622555378888328,0.001978335104187647,-0.04643377547349441,0.010455997130140355,0.02119401183511043,-0.009002662788529354,-0.04037851306502206,-0.034373495897369,-0.005971154666070453,-0.0038887229903639777,-0.030446916759959322,-0.037634489894172736,0.014832590897599718,-0.033234526116631385,0.0329285121837428,-0.03141217416910017,-0.025059160139691672,0.04842523093502185,-0.041211909753848586,-0.05318022184550421,0.011008111588049166,-0.051131949952402674,0.025100318218904398,-0.03948979447556927,0.042906099340443,-0.008214463612849592,-0.05296053095015796,0.03684693380103572,-0.02548682949979333,-0.03125566601211074,-0.0013259190165676755,-0.03863277234811245,0.043240082240527646,-0.022311513090637176,-0.03401992496860191,0.04830527376745461,0.009863916105521757,-0.035097822217888826,0.027519554567179038,0.008072824546797263,0.024416129196619955,0.023609157885020216,0.006704150344767469,-0.04803391458132936,-0.03440150079238872,-0.02772185114312054,-0.02432202951496805,-0.036914188299062164,-0.0010467837172275316,-0.02939947367859642,0.038428183202156296,-0.03849983094167551,-0.00796125427753118,-0.030176479151754382,-0.018527886680026567,-0.03000015684293162,-0.034537754052216985,-0.006940464719204717,-0.012774378403566254,0.038149713780043726,-0.018123519514842847,0.09246860114631116,0.004876428026805376,0.029831365145484224,0.019268445418981445,-0.027769573460169023,-0.013418864952500715,-0.058040473649555425,0.021574660198690792,0.026394145374985658,0.014973367325012534,-0.030224113535851336,-0.0012491007120742287,0.007624456240579264,0.0742138455237392,0.07638100176618655,0.03734136521473465,-0.03758923757544109,0.012725682039931878,-0.012362739956926577,-0.05981731560460864,-0.04139256065724145,-0.045789108197862284,-0.017458121381535324,-0.006523138920987577,0.022313956381084774,0.06825394210755088,0.03261766035160101,0.03237293138160833,0.006982614811644424,0.01484918000676288,-0.040752607944129916,-0.035256435471513754,-0.03819566575316434,-0.0071072512212301455,-0.01180276164716474,0.050532497869430114,0.03312376245653053,-0.009647584708980854,0.060281831277529487,-0.010192990336548318,0.06096489997118415,0.07570773639273912,-0.03553386227348979,0.008819809919506868,0.013824028302566176,0.008734614171641232,0.0025233921619021975,-0.00486487191867142,-0.006307136855325904,0.04378046570270745,-0.03553190826019228,0.0009273266298973653,-0.04026873255298734,0.018656044208019577,0.05237129719210485,-0.0059212125834337175,-0.023416453092517435,0.027518715558141487,0.03286739581365257,-0.03249583263887537,0.003666977144447344,-0.04973657619421368,0.04065769758827859,0.011693691398539251,-0.03243407621927681,-0.04954216704950773,0.040211082742162146,-0.051103205941359184,-0.048750434254916784,0.0032776677681820663,-0.04649526584750789,-0.06121608528368801,-0.04353245011258653,0.012628669148813729,-0.010005613596090835,0.030259783922011504,-0.04220054026603892,-0.011689837403179528,0.040069106138619984,0.02181367050932314,-0.007431650164240954,-0.05648344964626097,-0.01019921372199877,-0.011371345881825786,-0.031463584727028336,-0.03231259647441791,-0.00761041698360213,-0.003791189660483619,0.03638275635226046,-0.015169841555022785,0.04226249201599301,0.02593612263091959,-0.049480152879746324,-0.021608870955787483,0.05593379039488405,0.021944686909750346,-0.0334784936360237,-0.05735073235665953,0.04214152574047221,0.03763459505280598,-0.028972821851317804,-0.05897189627508138,-0.0470494734767198,0.03263028405804134,0.03378023070532573,0.04049848837990929,0.015923779159325625,0.00847956197657565,0.035155479698108956,-0.06008128684315494,-0.055598989687072,-0.02240942359162058,-0.0015332734999979362,-0.028785495798865076,0.04963974038241596,0.007893395756150263,0.00015812559425174832,-0.005903058524213521,0.0025353987341447904,0.026031081314213337,-0.04520718079217617,0.00434184329915557,0.04475452251135186,-0.018795619733820795,-0.0609178114027723,-0.026965956716005046,-0.014502962788164186,0.031849372213751115,-0.006543944780294468,-0.04462015125652452,-0.012339022451446347,-0.04235413350908678,-0.023382509891615954,-0.014581289754330632,-0.05567819224904314,-0.05536874258789814,-0.01687176990947571,0.028509788066069547,0.02701782875037043,0.0027568209533389717,0.017480795582468598,0.03163072432386387,-0.009172319699674926,0.04218183208999028,0.005497414435505754,-0.05465902954833666,-0.002847211325821385,-0.03318305413985193,-0.05152078100617638,-0.009506905943391743,0.029943798826181794,-0.02547028141876265,-0.02316694223446504,0.03978108034934541,0.03245407050651838,-0.03400508342528406,-0.0199188703724268,-0.030385732804899018,0.034341469730966794,0.006080328210332828,0.03296594685979668,-0.013393878266535153,-0.029745058556525743,-0.010993477635348145,0.049401000433612764,-0.0016030249589414195,-0.010803786481423588],[0.04598361930020294,-0.023979568552585748,-0.002676521363565707,0.005915979666526925,0.006362952550693833,-0.053057837285463864,0.0040691915682862755,-0.0019287358905279736,-0.04846788620658201,0.016853923280706166,0.008584454749863017,-0.022756779792873338,0.019555188593794626,-0.02641189531500288,-0.004825619243278922,-0.012998957337105117,-0.024422124113986282,-0.015380850584113611,0.030122669456347735,-0.027885406289399617,0.008027312773806071,-0.03327586275370612,-0.007730160526851496,-0.017713975254717688,0.043978410515322405,-0.043552042718630446,0.019081736373661062,0.014233538242738875,0.053366486427552144,-0.012182076754573525,-0.044813503382029087,0.010433355352105595,-0.02324433130762917,-0.029003975906210972,0.038296326047827095,-0.005596344358695637,-0.0025046182024705903,0.021318454684476757,0.023057263769895513,0.038203915727026576,0.035348724543085144,-0.04855032929710524,0.05076523198556604,-0.04324277853010902,-0.016871322065025268,0.01151727371830595,0.0306157448237552,-0.018413671212089713,-0.03370233599866431,-0.022453146693991722,-0.04457737988641913,-0.05433568355076921,-0.028210167249140078,0.018472144135481452,0.034472870126990664,-0.01965417957213557,0.019893903533175477,-0.052040107944034686,-0.029798812154550557,0.02789250285889529,0.010365762076245674,-0.013992804248085107,-0.0400435720151337,-0.04327807295955051,0.009795189165798352,-0.018709422462003716,-0.040870215691433336,-0.012395032369493776,0.022340259920291712,-0.031468123011585185,-0.024295033405767733,-0.0488133695430532,-0.023697550564809784,0.05219908078064665,-0.0018309634990447585,-0.014220099068247475,0.007368815039415639,-0.04327035028774753,0.0536440173883668,-0.0032186024750040037,0.013195620881884723,0.03627324915710147,0.03928078251640999,0.04770025631150681,-0.009858929338882006,0.02900556301430949,0.04125600156485521,-0.017131397950524926,0.038878832000601216,0.033400422493940096,0.006393787116136984,-0.021349764756405844,-0.0009339747879477186,-0.042887102252399764,0.0077513165398930784,-0.00873400745741434,-0.045800505567343566,0.02453088576396247,-0.025618688184706216,0.04053526764680776,-0.0428643295105987,-0.024932447696741543,0.00648683281258627,-0.030039199373509264,0.01118759196894761,-0.03685427383279816,0.025652621089845763,-0.012480496420539958,0.041411094060259404,-0.04626511023382824,0.035946657411087664,-0.015208844995218533,0.033880059181669774,0.03169047674782299,0.007778224117720997,-0.013957200155428005,0.015502112099983256,0.00980070265965449,0.04620973810063162,-0.008062674275358254,0.045953093202255914,-0.020111316282333477,0.008013903974708149,0.015215857610528231,-0.034651740775181544,-0.010195723201210748,-0.043435152769790285,0.006089046570098026,0.014690793722335298,-0.045145526194324985,0.051742119859115664,0.06212500053782731,-0.03449044606823417,-0.01741648202535617,0.04347877371542895,-0.04449949193156143,0.03192765625184152,-0.016084786366495327,0.041078058575781465,-0.04805833457422438,0.023651303472844155,-0.020276315708039838,-0.045581935354800804,-0.02273609733137968,0.026364165253535354,-0.013569230120091756,0.04611746737744241,0.04872696790902668,-0.0011859233045021585,0.0355967062915621,0.011325684551251066,-0.04933099156033679,0.020020381954366916,-0.015287468628078374,0.010464761666711135,-0.024803118207462192,-0.030341551276222647,-0.010184311857584743,-0.03956008425491355,0.015855416983528776,0.02658181857624971,0.02029737847454818,-0.03820328101738862,0.04829924728918644,-0.0030580330378934405,-0.0010786522477183498,-0.03561882867838928,0.017476589186116314,0.016009870154913074,0.019165430681371994,-0.018219220156184025,0.03247178580382262,0.02116716078784395,0.0016272017745991632,-0.013813997147765631,0.04563122857298569,-0.015424574544197043,0.04944898067452128,-0.013394341874438243,-0.045724620248103885,-0.02654222355420535,-0.03957553488724143,0.041731554156257795,-0.011942864598917857,-0.009809579935746495,-0.02148497908987248,-0.0003793807173011075,0.04261995233400275,0.020088616193327934,0.007807405286879253,0.003545683164820817,-0.03474606256041495,-0.031096820198506923,-0.007219607415211802,-0.03263049273116424,0.048533435639763686,-0.025006717579772582,-0.02465550705417167,-0.047848411478856545,0.0042465174835244765,-0.04106801376048586,-0.019680426933552188,-0.004566815270726183,-0.008690944892027198,-0.017904636455528228,0.049040296739632325,-0.05202338283387929,0.04462279623510841,0.003991622171044053,-0.002849579044461283,-0.040522174846380515,0.004511609806841038,-0.022151146724394263,-0.02186779267811899,0.04005808155132493,0.025244535875842973,-0.053243599769117536,0.03281896664442474,-0.023190957263719465,-0.00655898353603054,-0.04737391206430562,0.007318754518340352,0.0285058126996987,0.01998051903374248,-0.0036428001042112207,-0.033996102470692305,-0.028062644203473718,0.006458412656681703,-0.04574236582282227,-0.029355754905532754,-0.03695446280032892,0.05166173431873775,0.022174988345540745,0.04970356370855335,-0.04266986624291701,-0.03469132017287617,0.04138597606784548,0.037829489919136414,0.037606180015710026,-0.02189843373645264,-0.02757891185231927,0.013354116901955138,-0.020026239321978334,0.03655222513223387,0.04114117836907492,-0.03630346351761306,-0.01925295413454265,0.03877779668450418,-0.0018496222838625279,0.015293457860430593,-0.01030361620612894,-0.04633065261907052,0.0483529620392024,-0.0446543913689095,-0.014248618667681415,-0.04954910910001633,-0.03862867026831484,0.004078592423788335,0.02230526987157207,-0.025133823128478918,-0.052743394887253735,-0.028305507596372778,-0.0412246204733316,-0.027227532099685203,0.029443685898814027,0.0002129843812086532,-0.051791477504304066,0.014179206967902992,-0.039564091994700165,-0.040619910736199395,0.028233692041088335,-0.009064126686884683,-0.041352826166815335,0.04046093851925369,0.05270482307978537,-0.030231736992445198,-0.010706024966795782,0.041243081144027624,-0.032312783700426145,0.02789204522664799,0.03924924689434385,-0.04281908738685958,0.03688370163553729,-0.02763409905193773,-0.03597288192515884,0.003574375352921902,-0.021429545803660313,-0.03422353377717292,-0.015172194749032834,0.006121100398434572,0.02696844856017648,0.047529513988921454,-0.022498967529995466,-0.02111234200776878,0.029290932741570186,0.003033188063404893,0.026969564012829957,0.039709685899011075,0.015967323335441257,0.01763233259318521,0.019796481453391166,0.036653994018968225,0.04247159079964574,0.010278301252667208,0.026959927426096597,-0.019053695162969314,-0.0030404844902708677,0.0015974515251699162,-0.0031675412593036084,0.020594018288414766,0.0352120397873238,0.04968919278095606,-0.0364138871594379,0.025394344868124606,-0.0191379986075437,0.041190090421414347,0.04238036374699027,-0.008130167293153887,-0.0030860628854951183,0.04205753354069639,0.01016339731742965,0.02827757368856158,-0.00477428069652547,-0.00024315457686764134,0.0517386470366499,0.024882218042247033,0.013188113067466778,0.008358083011089477,0.043481106400879765,-0.05089999909783142,-0.013351174949530802,-0.0022303998862491215,0.041789372199148626,0.008571641497995091,-0.00434620815047302,-0.007429850361676751,-0.016894623580409444,-0.02308675206386865,-0.05298841449568181,0.017980735643389364,-0.036613014344491705,-0.023535904708528014,0.0300419605489696,-0.012352488959777516,0.02588664253021352,0.05421388217688019,-0.036958722160706725,0.0027846331649482056,-0.011768519035053776,0.04459642250283547,0.05032495104548451,0.045959106160565984,-0.009665451821372238,-0.015275005220559003,0.015290724143965593,-0.015075489578354053,0.005477135893932233,-0.017170690801903653,0.03680530857667673,0.0037465407336041753,-0.02498868646771045,0.022973820547452957,0.020318552109915476,0.0026812756363563737,-0.036738441055366784,-0.016089976259936783,-0.05075637649018876,-0.042207524778758165,0.05036231588959015,0.006670231942119696,0.0347407204615619,0.0006318730210025948,-0.04250617595573694,-0.011171630102849373,0.051161072245314985,-0.0024928896054755116,0.03428505106972687,-0.02228576033279594,0.016543343805667604,0.028701508397686183,0.020876794973572914,-0.0031759335690214503,0.019163030211333924,0.03252163544437486,-0.03326757887732121,0.0059706223184380425,-0.001459443837857503,-0.04512873564501709,0.0468323736854484,-0.007118435701763318,-0.04830114649639376,-0.040411457064338796,-0.0019282307221181055,-0.025969242504934015,0.04747799079374061,-0.020850624011344226,0.02794208671416069,0.020167046891947458,-0.008345568295560284,-0.04643956072447795,0.017151828213678198,-0.05031665042294289,-0.05341800686767752,0.041121197626277806,0.026282974693268638,0.04821225695517544,0.04654834545870879,0.011418586464939798,-0.026891829531868028,-0.03948304733356113,-0.02492885569909383,-0.004468866263046818,-0.02653344624530266,-0.03935517785192392,-0.04928504684468943,0.026209039684833388,-0.02956775566384005,0.04429104485015427,0.041203896140883885,-0.040737309031243174,0.024709078984554694,-0.04829693472509833,0.0038795226851914065,0.02349683165703777,0.0078861263919001,-0.03958474633987151,-0.002411758080344756,0.05078025881974812,-0.05290791428718357,0.031420453262802996,0.029993850885483907,0.0359966030979115,-0.04947058773611923,-0.0034843829065386266,-0.0012400960052241592,0.015505327126884263,-0.050952400160091886,0.02557841966504265,0.05197930445227336,0.04168513295995447,0.05265751694483099,0.028524194632350862,0.0393430611637662,0.05381799512083539,-0.04843196568618604,-0.052148414756957265,-0.05388410519141008,-0.028103072063408962,-0.0011956754880845986,-0.02234037110255887,-0.041497503350998034,0.04121468571366766,0.029490695176274954,-0.01574244190558165,0.04397450047920735,0.01642733376979613,-0.036396181834316844,-0.04114623628620012,0.032638057063198646,0.044179473937762545,-0.04935238092922576,-0.04401999500000977,0.008501663089081275,-0.021583075931043777,-0.04450648282879285,0.03748657597354595,0.008605261001872292,-0.029633882637388104,0.034643538812998656,0.027633884299831928,-0.022146343658014805,-0.007103852832376128,-0.0011361188423364553,0.014896763985651049,0.02731091774996915,0.03602771943423605,0.017339116611603724,0.02930195242910959,0.044929685599896595,0.05083122454697693,0.04764735048667872,0.009262320152525554,0.04975142494130943,-0.03384137261170882,0.009642278737005064,-0.015572076918963628,0.049211951498938485,-0.04955715417337283,0.017600907022538602,-0.028806144363684734,0.05311226527890322,0.022580332642939578,0.022491032071308148,-0.047015410518119416,-0.02016394899321516,0.0349286131767544,-0.008177740596940743,0.011522794938401892,0.012590738596307249,0.03161900189394439,-0.031414580693166334,0.005236167417213017,0.009104334100547666,-0.04748106611419154,-0.04505892017605409,-0.03886195681869039,-0.04209708973778052,-0.0024641802999081047,0.03111072168022816,-0.03259525045412476,-0.007521200718244667,0.006849183926114627,0.01475532202707224,-0.02560268579500615,-0.0030601116704143264,-0.04801738156293656,0.046458411321758965,-0.03114973301045892,-0.03477722505872052,0.001849491783923347,0.052597725411099895,-0.03131305973356558,0.003514386433927071,-0.04815615502021619,-0.031048611383963014,0.0023172954796129345,-0.00578309120155704,0.022888307691391465,-0.014337137953475245,0.05261774409852778,-0.02115764636289111,-0.02533785958295604,-0.042977278521215925,0.03732456649739083,0.01792786928806251,0.008170455372473474,0.052559913860545905,0.04409048683585842,0.013027432556459028,-0.02008544586087591,-0.0015410378327513942,-0.05255886563839131,0.04593458105316458,0.0032108679899814628,-0.04000406732907406,0.008481063266281914,0.007200786163370847,0.03370180946331429,0.01105411629891717,0.04011670675963305,-0.01170081394023066,0.011696494959467655,-0.013817449532390981,-0.0388268864657961,-0.035700352871394773,-0.05227924368424388,-0.026486860983907734,-0.016438823082228562,0.05029306006797003,-0.04116995009138457,-0.020041889917228932,0.003919111803227149,0.023425059344942437,-0.046534997470497046,0.04779579969881191,0.03564847563912237,-0.019968767238047677,-0.014816189643526996,-0.04587657004883245,-0.0355268707605004,0.052349398306726205,-0.05117754796233653,-0.04674532482885576,0.017311987867225046,-0.046393417146026086,-0.04370302433042002,0.012416018809295652,-0.038662040332300716,0.009169104423413905,-0.037419616624498345,-0.039835812427526006,-0.04706084037974955,0.006017912676955127,-0.0525401439600514,-0.032740336890688636,-0.034901268470495884,-0.047498840614275714,-0.021479153058376034,-0.014453391044734329,0.046475456764019284,-0.024903077500782383,0.023851370402223255,0.003365196274444599,-0.022845378729823028,-0.006898705742793171,0.03959253978233138,-0.04631197648474107,0.005731655086636136,-0.037306422925492466,-0.035347662745263686,-0.017966415891566515,0.028706359149912708,-0.03471708679425066,-0.0536988931570818,-0.024801117413674537,-0.016708719531843243,0.0026753272506450008,-0.019298350859258455,-0.058250174865761804,-0.03874918984048821,-0.029641418280967908,0.0010088094972128374,0.011763311665365298,-0.04800185581775971,-0.04546324613304272,0.01514104325501264,0.006013126746865121,-0.042098945673901544,-0.04310118307925522,0.004318756102106824,0.0065711675682640185,-0.032545808927122236,-0.004873793778619861,0.03246725401130269,-0.031773551030585045,0.045784110818682,-0.02761726543961889,0.01672664013973053,-0.031228566206617073,0.0023875504004035137,0.05267597704988281,0.007532327830500945,0.0024171440501616084,0.02779223148021229,0.04385890600267488,-0.04833224762126997,0.031128656862371592,0.02758049948768145,0.05599500412287615,-0.03432676217774035,0.00008888953187471916,-0.03637174420026197,-0.009759874696567968,-0.0515259787224767,-0.030272343778825955,0.03930133338356757,0.054573203813953454,0.018612989773577712,-0.026233444764786052,0.04058366395670146,0.01148118379805454,-0.01510321782366854,0.006299170891837752,0.037298875478174086,0.007439549766047528,-0.02619743697920445,0.014013813248082135,-0.01268527048533402,-0.056325526530115654,0.022354655144256438,0.007269192217647407,-0.002307520899132499,0.02215743467634837,-0.027769060526940614,0.06475729563613983,0.014416774320399965,0.008300327394294775,0.05173324114134741,-0.04241945119197752,-0.002305593972610174,-0.04444143900118188,0.005463192027745589,0.0546470382651965,0.05153114419703876,-0.005311920345505613,0.011051904172983672],[0.045557299813491194,-0.017682210056844772,-0.011759649109812222,0.03178170570588921,0.013822445679627062,-0.04963183486683011,0.02653943914869539,0.041791517893327496,0.03384733353048421,0.02344576860385325,0.026187785287751376,-0.02519316721691512,0.05136388624917589,0.04702598522007373,-0.005415298427270437,0.026634429328112653,-0.0559781612215708,-0.017760240090929334,-0.0322928669352181,0.02419163427318122,0.023158029354213534,-0.041748340548973736,-0.02700171094426474,0.036683436281375936,-0.03158582169827473,0.021401086482027102,-0.035065539288932544,-0.010386316173127203,0.026615923550654622,0.02781422098391102,-0.030374747141915463,0.03575477243301745,0.03692669892062026,0.04694229715587691,-0.04613031912610879,-0.030585803795443976,0.040816497957239475,-0.014806631063368847,-0.015063402237640237,0.027874903436092235,-0.026396252482553763,-0.05057642759168188,-0.0013529490590239136,-0.021098957452779277,0.04800386155141955,0.010821286381727703,-0.034925738520101376,-0.0010231003895883803,0.0036811725558891554,-0.005571990315443614,-0.05165685744629261,-0.04389819293701013,-0.003373061461342434,0.04423182821691393,0.0478942853257224,-0.04240917631967769,-0.02040560801831164,-0.021503885248324535,0.028995624345318067,-0.04825561437191298,-0.03337250995380121,-0.038938642195666506,0.02364456271970619,-0.04609212999651403,0.007858249406696155,0.010620439093681175,0.0421638959848108,-0.021246657482905263,-0.019679676809730443,0.0048653712944747895,0.017277387401610753,0.007564820290027876,-0.005950992525786936,-0.0210467122156546,0.005219772908062648,0.05072428590256443,-0.010995427501272834,-0.019353113321112735,0.04480293362818344,-0.0467197714539559,0.008810125834042441,-0.0210605976439045,-0.03309816839868828,0.019840498583717742,-0.0490071857762401,-0.011445284132179448,-0.025320709770707606,0.01886874934481733,0.026854171282414917,0.03048582534966514,0.018936600205124283,-0.025538134182164364,0.005191360537182229,-0.012365030711120958,-0.013836146084885367,-0.03887065592220934,-0.006795381201357653,0.0009912042144065293,0.05382873178031907,0.027719914653736452,-0.05494677655460404,-0.029790047808479797,0.034097781687130804,-0.024643257519120828,-0.050401870924080286,-0.03150303605551221,-0.01356880770575359,0.004953384052019243,-0.01482804275563445,0.052951188232293035,0.030305327438845724,0.006221933772262147,0.030889117863355537,0.0481183704439,0.04122271165553235,0.022448896414833577,-0.027143896616468374,0.01687627225770874,-0.02721313302074181,0.001464644926065175,-0.053649769255362655,0.02143156872271806,-0.017034222561163572,0.022778290612817047,0.003599137024397926,0.007515395913476038,-0.007865792158757677,-0.0028361021553630185,0.019129479528582956,-0.03385775444947298,-0.039547811869186586,-0.0074335773863903,-0.05006651204148384,-0.040668846002776364,-0.051891910537218644,0.04945424431984713,0.04626930774087982,0.023112336717365903,0.015824600688738876,0.015802527663669384,0.03260397772504467,-0.016730994376462496,-0.04478006439971471,0.047085041717323264,0.0052327848698706415,-0.02169979570969136,0.0007045448108314888,-0.05472832217398774,-0.05203859304495429,0.03757693064798106,-0.02593047550584134,-0.0384133211183638,-0.04922089410530799,-0.01994433323524305,0.02251165659703448,-0.016255838491470782,-0.02170216787588488,-0.02899002122832822,0.036436867975737336,-0.01600589870591921,-0.014029599975084052,0.02739559226241734,0.01794102355677035,0.03577035946684316,-0.02449785263680273,-0.026267867224002584,-0.015055256160552472,-0.026149759717172948,-0.009445756920255392,0.034122144190365314,0.03424639385298355,-0.045517946319351535,-0.01168904952984522,-0.010643680915496922,0.027513229802860497,0.049573489160289363,-0.03964935358540093,-0.010414111554018038,0.03384702976682994,0.02697837540878676,-0.03578299299293936,-0.027506279237493533,-0.020551641665512068,-0.020717412128544832,-0.013477779471163626,-0.013077276074537429,-0.031427781167856945,-0.030164448806599336,0.03296979909089521,0.04350857586332613,0.024409480073111393,0.004842411552419056,0.02574418156294135,-0.017254815891223692,0.04460852779258173,0.04876046748261368,-0.013916745412214462,0.03582008324937125,0.013694663155607988,0.018812422638982397,-0.03505541789738966,0.034093721775864824,-0.04515608010503582,-0.028058375949453648,-0.007653771611409164,0.04684051537040434,0.033621371603899344,0.05180774150308307,0.05276349838759449,-0.04390309437406513,-0.02761961826179157,0.03485165794492,-0.02198915739293476,-0.021070766844102026,0.0015700510103679821,0.018591053488019035,0.01059403421551833,0.016736069116792124,-0.043402503313635314,0.05425028235009482,0.04297745551620576,-0.008248818948058675,-0.049923674589759534,0.0015802091381602642,0.05086825693194928,0.002213833598026208,-0.03360648536052641,-0.0018386937124392157,0.0037347639170964685,0.004499680094754946,-0.013709358113898897,0.0009959063699782988,-0.03470679289548841,0.015713105509630204,0.009112065774974977,0.04309460011588458,-0.04118373380545245,-0.01454102625490726,-0.03445942297864725,-0.04801224929948751,-0.027015164875412716,-0.018982886669382682,0.015570415396102884,-0.03283477497564143,0.0380706293453051,0.01925912316220673,-0.013641220322573974,-0.010870095920774774,-0.02357375873790099,0.005434070569964021,0.04950081209226251,0.03321778874334411,-0.02873402335176022,0.0013161633680987184,-0.02229296915246224,0.035091629089301093,-0.0278252106484098,-0.04133252435489756,-0.04819609402492655,0.0537171267577639,0.02670264619641847,-0.03572743057051498,-0.013208226054667104,0.04274499023912341,0.006977678659138837,0.04541218205292823,-0.03943328618038796,0.04290164675091611,0.05021065993499184,0.02882832402868425,-0.050721123571539836,-0.05397958114915751,-0.0036319450289674497,-0.0003971240162549156,-0.03508063790963697,-0.007591455344172733,-0.005805771015419817,0.046764863278917684,-0.044119342222510995,0.0090023248785125,-0.05136127552529915,0.014640706978889815,-0.01674731155194872,-0.05350077203241139,-0.02978452933400155,-0.04540608914168723,0.024170448845904833,0.026970521437856325,-0.0051335116398522,-0.020818496375193084,0.02947313862620769,-0.03967952624174914,-0.047741029432812145,0.03565000222264318,-0.014592333628645723,-0.0498152505549691,-0.04736465648040692,0.0432531545839435,0.016292574103827243,0.01592678727550706,0.03927090108417905,-0.04464580758106083,-0.03535399515171798,0.028257376862479346,0.01082614769499186,-0.0019239881368727407,0.02876394548805464,-0.04090829960193758,-0.04427527090307346,-0.03523735540684468,0.04324844377754495,0.050412575705492145,0.027216186322464763,0.019285490250106847,0.023072137022395325,-0.0010424455244056425,0.001713107881450779,-0.004860438154105606,0.05162956772587887,-0.04185101066431701,-0.028625883475188196,-0.0177029066970384,-0.030405381611607444,0.0020813930376935123,-0.032365113866265366,0.021637368673824497,-0.03770553241698379,-0.051284803887627975,-0.02662466728791685,-0.046890890567146626,-0.034197742608921014,-0.019968505507108956,-0.04086664299300714,-0.05404494957045769,0.0487133254956005,0.030717564828823242,0.0511013355586414,-0.011076398632195256,-0.05149196543160457,-0.02391486129791424,-0.029911132520183074,-0.01824387220235506,-0.0024791637468848035,0.010647631542885116,-0.0016304667527513598,-0.019352247441937493,0.011189923066615929,0.028515942397051085,-0.03700098629732266,0.02420410242588583,0.013463935573817948,0.021314221275219498,-0.045638663669974856,-0.04443644061137791,0.010920397685291544,0.01175035492632152,0.04606371002540623,-0.027656834704386613,-0.03567785483761779,0.045023628630702826,-0.05395990728315271,-0.03539895927616082,-0.023867741374096526,0.037812995133289486,0.05087605568409257,-0.03419862985830948,-0.03833811871347924,0.01808388418375231,0.020590643346856338,-0.027960824092152337,-0.01859095720953111,0.018874906587456042,0.04884860814408712,0.01645438559052303,-0.03150791984047269,-0.007711813778542551,-0.0013385438096067631,0.015656804110851213,-0.005579575138535839,0.005651088970831257,-0.015730407579061353,0.03695102597841084,0.02941653771655944,0.04871239155512698,0.031682236257124234,-0.007022827133021912,0.04032000836755847,-0.03954823952491039,0.021179383397707124,-0.03239149372652552,0.04493225646130633,-0.02080300405900244,0.02384513849109987,0.001224743354541366,0.0379392399740151,0.04649769186744212,0.0003324529504258693,-0.05080858366939169,-0.030265434925174146,0.019152439802678698,-0.03419739115083165,-0.01666021298563635,-0.04960006240022346,0.052880962392493826,0.037270670468704914,0.004397880701241553,0.049889359334606566,0.009312096447328276,0.025636988731590947,-0.05155828804980447,0.028201509483315953,0.043351705419067896,0.004593180180732705,0.02436380869347762,-0.02239548175846176,-0.023274442512399355,0.03704569749577014,-0.0012649763084822034,-0.02525333297218147,0.019636176527120654,0.0334521580884391,0.053192991253458104,0.02346402169066723,0.014778088953269085,-0.027671159302780787,-0.051073659779493,0.04927568654297629,0.01632198950237453,0.020301673800832497,0.02359648871041733,0.047757770562152385,-0.04353531474583086,-0.014863729162710579,-0.01415830513560612,0.05103256970973049,0.04827511810078485,-0.040526445809691704,0.009249387022043453,0.009595939698557565,0.050865610852689515,-0.022084863492341723,-0.04388450154815828,-0.0036490982371143697,-0.001662475159526942,-0.046138466683348325,-0.02665783936506434,-0.0375436590980416,-0.0071945714344922446,-0.051983365182176326,0.01437587536647393,-0.0009759314347584236,-0.04574777276228119,-0.02755735819791966,0.03954164723671183,-0.007488924890707351,0.02459878695643449,-0.04151037544267664,-0.05440218852788619,-0.046239717672906175,0.006651401990944506,-0.02117688620650135,0.050930889151525514,-0.03092375510376824,-0.0368379053670726,-0.036829646994131424,-0.03597636608773862,-0.027633907133476614,-0.023510332351430588,0.022442596291561943,0.01974478198535826,-0.04365804997918001,0.017516897255238143,0.018640915345772245,0.016967245968819336,-0.016962314291771776,-0.02206226726356946,-0.02778668848829401,-0.013235528454551936,0.031307437652219626,0.001978522937318691,-0.05309073350814367,0.049359451984364186,0.05338794208251748,0.05256125642194053,0.0034405029561740447,-0.03330581980464366,-0.028153529818300483,0.04628244887074782,0.01437527603571793,0.002773110203220743,0.039085230888782956,0.016171804481069814,-0.050046192532618154,0.028769462818336235,0.0283483934313644,0.051625002886029454,-0.03900658417886741,0.004979380832747018,-0.051497839417700905,0.04717647659493604,-0.006079747239396502,0.023747545311139172,0.051199641947590004,0.015253677060830442,-0.042817399671184725,-0.0340314042052991,0.015091021623832829,-0.05166455325352146,0.03431910845126177,0.0011571911250934344,0.04678958281262201,-0.04358746041031681,-0.03807639957918558,-0.024952132984213858,-0.04638020262782391,-0.0006483529449330055,-0.033397166150287615,-0.010592547082292068,0.021850088569245068,0.013105824410519025,0.02325821443404482,-0.009311879233067531,-0.04182873880397319,0.045114082409668806,-0.02269963312485402,-0.0027333481432681877,-0.027581576583915905,0.027406245101579647,0.014700607952796605,-0.008452636803001153,0.0461291658124241,0.026802586774472104,-0.03377319525302611,0.02288652030065678,-0.012997965907307809,0.04379446346406939,0.02028583649235225,-0.031374338888037846,0.005221963786732994,-0.041968735966607634,-0.056681822234435617,-0.047586184883170554,0.031119395459049088,0.028890728193022124,-0.023784230234778537,-0.003684000075598268,0.044624006469997084,-0.047833080077073015,0.039619517837458006,-0.05722602951767528,0.005559684788343855,0.011470036195083697,-0.046982783314025035,-0.035029274443967556,-0.01327509361469392,-0.04754637227497075,0.007341085689017854,0.05167404298958315,-0.05339294387945378,-0.017079778067453755,0.04548761142595584,0.020862071714339174,0.0445255385090268,-0.036556784918491396,-0.0427472460127339,-0.028261698123893664,-0.03810741862664851,-0.022568467688695693,-0.04414029097364997,0.04795530146296381,0.04086739804541753,-0.04745515549343543,-0.03087236618425994,0.013558161888662433,0.034049219616506476,0.028642525594501825,0.023594957292733226,0.044410299453776524,-0.0470096144635267,0.038154001784844245,-0.0037280617704205394,-0.030175995272789028,-0.03467081498379121,0.005477669714299361,-0.026515280945758286,0.05153485079098608,-0.0017680499975562592,0.049193614740410986,0.03672987958112646,0.04561894284602507,0.0516397480183351,-0.0037102002020324505,-0.03371042417408929,-0.04467611398970158,0.0026643736514941545,0.009051051309537407,0.025412555341169627,0.050009247770557784,0.01029652150544657,0.029162704534752983,0.005514273727078978,-0.018468904046150175,-0.00899721265670934,-0.03296139671572098,0.037989271867399525,-0.0185700574943892,0.01436190847682939,0.03390286681129894,0.02239526112193816,-0.04291375888461373,0.015817951557798842,0.0028708726847952947,0.03902830202213678,-0.0058977890928915075,0.03472749096712584,0.02366110415585158,0.03409496558543248,0.027683186687739544,-0.029169214336231725,0.04051450554011311,0.00031470977597960613,0.027483266020538397,0.019411147897724888,0.010628704429873929,0.02798238544714638,0.04825542454884225,-0.0066294050228506325,-0.029011660976199057,-0.029543731989295982,0.021422006924597455,-0.04373983478400453,-0.054026504353120015,-0.037164481385389705,-0.005906585448893225,-0.002327227606781148,-0.053704981038687205,0.005108663076883653,-0.014919136548740162,-0.048170124593192,-0.019310188489819326,-0.011658992459408666,0.016218034549003314,0.025515458125457153,0.012871015071081933,0.030677018179597396,0.015167952907393726,0.0162584063841766,-0.05753580400486171,0.04587244512569757,0.013476919944882742,0.014589105694234494,0.041216651434146614,-0.021451631277759203,-0.012029601131356562,0.005995371274609163,-0.021124690806522628,0.0034907573443998786,-0.04643101508413006,-0.05097141511311404,-0.04783968077816354,0.034161247023464646,0.0399711989999847,-0.0498211931557341,-0.005787903439165547,0.027615110923666933,0.052075083452666794,-0.021236295825140868,0.007018421554330221,-0.01941601407758928,-0.01830346492629032,0.04955968747130464,-0.0007983607672937865,0.04488569842618396,0.04392658032509874,-0.056043233127565116,-0.015032984642461396],[0.020782944349188107,0.01057345871610662,0.004968078840605463,0.006719982549088975,0.014917624309264079,-0.0038873303896360565,-0.027125926536286284,-0.01915392778231663,-0.028604727609926155,0.04819909107494727,-0.006466631227162177,0.038088006405897934,-0.00024296631506800996,-0.014310242707862696,0.01345619555862274,-0.021954510991609586,-0.03160119067311099,0.03152356394802697,0.025375172837680954,0.01883605571931217,0.028115231135817615,0.005868914966252823,0.02587490295618671,0.05249843973317363,0.01591123536828062,0.05017716082898605,0.04940274333390477,0.04789953885470644,0.0020554067889592786,0.017177631492327244,-0.007585222487355836,-0.024803131633951276,0.005968105034380069,0.012422531313465417,-0.03559089545483646,0.04847909956222741,0.02558482800278615,-0.01622637542030579,-0.02648733738703336,-0.01299389431529976,-0.015371646429266422,0.02649385005493534,0.02869099943882781,0.011543844303732955,0.01129591468764712,-0.04457195720272996,-0.05986596234457404,-0.038513788004806246,-0.006582677480004136,0.03192696690290668,0.01737763732289746,0.03138377247631901,0.006317134749197272,0.026664269694584523,-0.055412934829113046,-0.029164473827575872,-0.042924117557660936,-0.042186233194046026,0.03613386111165622,0.026486702070703187,-0.048576659923824435,0.004108700101271107,0.02334965532308775,0.0004482578561906807,-0.02538120873860362,-0.04280839277030461,-0.024478666077388866,-0.009569841287218843,0.02558968475560012,0.04468236750393213,0.022476739472127274,-0.04482919084694253,0.012630191755765465,-0.04942916159695118,-0.05571437956501924,-0.038522685714644976,0.047368442884433926,0.04636480309480912,0.011912997899083722,0.04042720690903137,-0.00597165633331436,-0.04550747444270619,-0.01076096279388459,0.033105324455799896,0.027265440641407936,0.02952297017336692,-0.05577599300494948,-0.0436028563873608,-0.04515972634267223,0.029271289652386612,0.01885764903120236,-0.028999292766886488,0.03469881617879978,0.031142558970683774,-0.03974898488404333,-0.007158979740272076,0.05256471766809256,0.015552891176221589,0.018507061084168056,-0.055787106092934816,0.01589368600738754,-0.04111683833774493,0.051619666470120104,0.011876337195878408,-0.02325409349992561,0.026426096378403617,-0.012103686302543278,-0.035307850123331014,-0.04726164976929064,0.06365066075597917,0.025071180832068836,-0.017046135458999547,0.009393526369190271,0.042176282729876786,0.044172783639918216,0.021179133880095995,-0.014705432360893247,-0.0505040586287335,-0.051028006183120665,-0.0029949613321931068,-0.04089389233740323,0.0003079447997205271,0.024404394267289544,0.02688154288797582,0.058272707734033286,-0.04018035174299874,-0.013787076099440262,0.012819307593250609,0.0019795400683408865,0.03690566833864032,-0.04845119059117395,0.0019243745909619167,-0.018818736386158785,0.0002770166284113718,0.02190305515652234,0.04762761415084434,-0.040473960595164955,0.04368368613969214,-0.009163634430917186,0.015374969491340793,-0.04186825806783727,-0.005631183959142481,-0.03990601211386908,-0.01158214252836377,-0.014471538130257875,-0.008545249468102764,0.02595154574841767,0.03529520888759846,0.0480515107957305,-0.047313681733128145,0.028709147768307474,-0.046641232730682346,0.040504387125765554,-0.01698831638269741,0.04749964251404227,-0.00847477199970317,-0.0515671623493509,0.02617051261387289,-0.016364293967292293,-0.04459904730104551,0.027130213567298278,0.005744335149299877,-0.028280378626538025,0.010773766082473558,-0.044350130354692506,-0.020846721227025116,-0.004550431747275353,-0.011738573932814612,0.0187959779794009,-0.042479658812772304,0.0019312513083953192,0.05042687037596057,0.001977764766225468,0.029638550813316556,-0.023420400989723963,0.04769259067029445,-0.04670453803045561,0.027132534588931483,0.0030537419382477902,-0.053088534029917735,-0.034482282452038965,-0.030368417379438403,0.041427581632243554,-0.03391835985911167,0.04752946581170285,-0.008736322782276484,0.02795484383702547,-0.028468285590134385,0.013126385811165885,-0.04692672956592276,-0.02984207380927496,0.04011565362404685,0.03192864740836326,-0.028310040005077135,-0.033980882697383544,0.04974191432119046,-0.03158875656270334,0.005985638754722664,0.015547918655130808,0.010942200656248093,0.012725034774883247,0.00017020110233543698,0.0200463288499838,0.016983799758345033,0.049123695572740544,0.03652319635095714,-0.035801159417780726,-0.04728741372047477,-0.04363299097835512,-0.027928381518260333,-0.007751201144142476,0.050429286711232216,-0.05280637647819394,0.031041782971766223,0.035526805348475826,0.01013968669861706,0.0013636413463247827,0.029618116119626173,-0.017010012254667962,-0.029636448722798206,-0.024978445000258417,0.04934286288527609,-0.023570896991494304,-0.007391263630956888,0.006505566318167439,0.03967539801777314,0.049442478587793624,-0.036936062959412465,-0.04504895663340313,-0.043039407761581536,-0.024421703865871888,0.020957318333932613,0.026597325115377157,0.011408870621323102,-0.020049314537679414,-0.02351833631954355,-0.030584211161878583,-0.025388064079431776,0.02408100532387062,0.007794766076070034,-0.028942490687744234,0.016490541667999847,-0.025402744274046547,-0.006658090939772664,0.03552039291054239,0.03254783573286173,-0.05004724667473347,0.04298089681252918,-0.0010220923786062393,0.005580655215328353,0.028988056688181003,-0.013996484616616206,-0.0002660880884928161,0.0041966517849142465,-0.04270887453205528,0.03453398906618536,0.05410261501442553,-0.015491467125268535,0.002168773275698281,0.03982001568056335,0.02557777503067889,-0.03526797963865484,0.014174126561338811,0.031029010312663193,-0.04713910786146851,-0.033947435796600665,-0.049377437431336324,0.01431324892980691,-0.0476117882802414,-0.005644727901179659,-0.0382796237113298,0.0030302644224127974,0.006934161703762099,-0.0009480465022193929,0.013117237185473824,-0.03633101373662127,0.013340747040804408,0.05194404633495019,-0.03638132145737239,0.05276660068660477,0.03531363306217604,0.026166498755800946,-0.03459758973771601,0.02692743890919341,0.04423720059180365,0.015371475452712939,-0.027227970061470905,-0.04235170576331112,0.006507534922459792,-0.04482190443989976,-0.0007796997635748324,-0.040476381519924595,-0.04835995472626929,0.03627400462154191,0.04039050826056313,-0.004766476756281002,0.011854433325568526,-0.03596139173593325,0.007343806113905314,-0.005600912308027351,0.01821817117960775,0.020051660502458803,0.03021594325197696,0.03929421580560947,-0.00193605613832012,-0.0496036650450883,-0.014510713657142241,-0.043706403233916495,0.02379188078976138,0.02446660842665748,-0.02261879024080295,-0.0045738968678063876,-0.013990871771789726,-0.015929034178838685,0.03944994923755216,-0.005456768473327473,0.017662061781275207,0.0473753812900076,-0.04838329017608217,0.015726882033090295,-0.04119190228010062,0.04727343777295597,-0.038006625801508175,0.017899507125339432,-0.04605987497183276,-0.008791900414286654,0.006332498584918755,0.01269678763688699,-0.008773131123750182,-0.007275776274431696,0.0461977709401408,0.02867913061875184,-0.003139301763070553,0.0022967751587107,-0.044600386872512846,-0.019428721894004033,0.02151260157693023,-0.01774753759964181,-0.021624886401752967,-0.013067945388637484,-0.03035663168974583,-0.054407947742217425,-0.03873534205878687,0.04171054785564203,-0.028153953818061645,0.006139406186420607,-0.04684671046423852,-0.027091188388716117,-0.04389689307789038,-0.008386481885864484,-0.012969368448422277,-0.01225112022819917,-0.03943852181243296,-0.01319139498492882,-0.024811920059348323,0.04553250547301084,0.035034372940256506,-0.052756043033443493,-0.04699293655051306,0.004498471729520168,-0.006674110136897604,0.03884530576903485,0.020188697766315013,-0.019166009136541297,0.048441937320483255,-0.03934541297571289,0.012487065528682194,0.04320535612532526,-0.048882549578964936,-0.03434056548994799,-0.04944108545131918,-0.031958689645154546,-0.026163218843604712,0.031881101067209885,-0.000445672932537802,-0.04541590869543949,0.044754013698332255,-0.025920271300710254,0.029862501808446792,0.04768072506903693,-0.0053663218192135705,-0.03288227883869983,0.016947327646457806,0.02063117856642382,0.020707792029494382,0.04438767442264812,0.021902229229631965,-0.02126973759572439,0.050175115203229224,0.004316908186735664,-0.03022197585777006,-0.03290378252138781,-0.04081132192010922,-0.011625368615434516,0.01756961390810454,-0.014556146166335226,0.0053034228426154205,0.021991048862392615,0.03710480728566075,-0.016792378154872296,0.024262240177745486,0.015078870219626514,0.00600451423210846,0.027487309732821322,0.006598578509264111,-0.007508688328253319,0.014939295451551385,0.049275220806638514,0.02021332454893452,-0.05448425432016619,0.008711449528935288,-0.00288564849884457,-0.023371366640929245,-0.026603283652633546,-0.043445022738032184,0.024760393471877567,0.04129745771896169,-0.04418053061228712,0.019795145259031505,0.018205082979279114,-0.035859670749413944,-0.012864878742263563,0.014245037666344683,-0.041429355667256515,-0.03160190377856675,-0.006398550815193696,-0.003249676893253138,0.016342051393192416,-0.03684829493575788,-0.031664310016240815,-0.043338925714638495,-0.04542316448878368,-0.025650905571810288,0.04360253696104225,-0.05207445548434074,-0.010160512404457577,-0.006756704074039656,0.04186638929460247,0.04465330701187723,0.04718981492525475,-0.006039087016570076,0.04050135851442321,-0.04377537685063935,0.03050444695337762,-0.01264255856991595,0.039961828366694874,0.05485708675143021,0.04882884928074936,0.03816411788294059,0.010677078211850374,-0.005832094576269918,0.001219837134441495,-0.00355674230417652,0.010949618233866198,-0.039013954874753766,-0.04599942213165782,0.0036522261223617186,0.054275731254469,0.027912750135106707,0.0223647382437015,-0.013417437871569548,0.016177816697804694,-0.019294413420343878,-0.023049295263171444,0.005573131265187408,0.008967615897195719,0.04235116210404228,-0.04503958688813947,0.01866365235439879,0.024822314583259765,-0.03334975891880535,-0.013469218411844808,0.03977326685430725,-0.04757446051363708,-0.01995233692878305,-0.016841428893597875,-0.027401041031985186,0.048865123243874216,0.008360564547892017,-0.01337950741896413,-0.027362260107497153,-0.03747829947838654,-0.021246110587520534,-0.029255811297679943,-0.028722351603065202,0.006170438833583097,-0.05245039889232234,-0.029554681243181193,0.02036745837502326,0.058634187426561825,0.05178141685306726,-0.02183807342178997,-0.040701692511279385,0.007167440629387385,-0.02379377429871511,-0.03230050023622867,0.03856173807592194,0.012861682077026185,0.03742467618784763,0.04153464461147596,-0.0185259359734713,-0.012785709754244787,-0.018422262776139068,-0.034702704926095944,-0.026452553247636998,-0.02434977118216683,-0.03340579873342898,-0.02960400006987275,0.022168889833506553,-0.0338066119610052,0.04620404791579682,-0.005125100532921805,0.01718248233481883,0.028331576138016706,0.04792303273855496,-0.03994894486763877,0.0018299123387522018,-0.024252866542411416,-0.018481703428641187,-0.02843063125748047,0.00365904186895509,-0.029868740157855785,0.02128134190591249,-0.0012113231635044748,0.0432052945848798,-0.058978654453393904,0.032658907542493815,-0.05878892248360382,0.001980324528414441,-0.02141404096470137,0.02686894813981802,0.026462554249226184,-0.016464515906256028,-0.008139444076373722,-0.02059683373783098,0.021489541671644373,-0.006175926853655042,0.038033562432480295,0.01106870210761834,-0.011151957695582554,-0.06215410646474443,0.014907618428560752,0.002414236507777901,0.04833924162301805,-0.03182771265974444,0.030465928534001666,0.02590204226565846,-0.02768606943677669,-0.01173196812061271,0.00855633471821694,0.020744870616861907,-0.019467103014727524,-0.02218247264947862,-0.0687027109906845,-0.059388743108308634,0.034691401456811446,-0.02840128305365941,-0.03878408242425828,0.02984104414343362,0.027259625970811326,0.019761549289837792,-0.010597680355894567,-0.058789613314170736,-0.046611173571419806,-0.011056831898484448,-0.004508894608017103,0.012976285978541866,0.04209304620202438,-0.06650297892265591,-0.029485148377962223,0.01339813433609668,-0.006157279118936881,0.03011094016683496,0.00712645633776642,0.0345970278168089,0.02643365028601732,0.05012373320979171,0.03740372877066637,-0.022566900144367987,0.02545815640825864,-0.009773297832156878,-0.05782616394682706,0.025366425879388345,0.02158606145965852,0.039247867287988264,-0.0381539234394477,0.03989727674409808,0.04949008878399509,-0.014409642706327072,0.02742219054340872,0.014675679536744186,0.018239798569885755,0.07372801292408342,-0.008227269570036985,-0.05795039946913374,-0.03723694091568934,0.053311123903941764,-0.023065230837325874,0.04373272086232197,-0.028484751296387244,0.043965859826024745,-0.013597863697063015,0.045604664071217896,-0.033264392183867314,0.028549634883932477,0.03562282119408865,0.05947042422038057,0.029469496990963403,-0.02113811227803526,-0.020228430835694346,-0.021525166419891065,-0.04398983664414366,0.04450773755080434,-0.027974473774171584,-0.020819488162754172,-0.05414826391263041,0.06091119037346197,0.02941337444408756,0.035169376417341934,0.0059743497679544365,0.005748996334549347,-0.03293994341095507,-0.02365160929875578,-0.014607745287936479,-0.03539602333796032,-0.049435568206213545,0.03395564411973024,-0.03639830063906452,-0.05395688503791294,0.026921675583027344,-0.013949710882021613,0.006097647085529271,-0.04096824463520841,-0.00909341593249536,-0.03352402480843842,0.035286583059780295,0.049056680536785684,0.020314798445153295,